{"fixture_id": "shape_4x3_rank2_gap5_fp64_100step", "step_index": 1, "refresh_happened": true, "projection_orientation": "right", "projection_rank": 2, "raw_gradient": [[0.0907633629176136, 0.05256652709761637, 0.05076459127691334], [0.05455099262767948, 0.10535350027873105, 0.06327203009413772], [0.05331355330682658, 0.05912749804025979, 0.12196812394432191], [0.06923497595399909, 0.07531638644586075, 0.10387194551280331]], "projection_basis_before": null, "projection_basis_after": [[-0.4981441795825958, 0.46507135033607483], [-0.5570803880691528, 0.4751049280166626], [-0.664465069770813, -0.7469831705093384]], "invariant_projector_after": [[0.46443898455543753, 0.49846404330029515, -0.0164010647448265], [0.49846404330029515, 0.5360632513969961, 0.015265073471823598], [-0.0164010647448265, 0.015265073471823598, 0.9994976859697147]], "projected_gradient": [[-0.10822831995644082, 0.029265760484297316], [-0.12790668217869292, 0.02816092932547685], [-0.14054016381296713, -0.0382217639971624], [-0.14546556160664695, -0.009608205067879213]], "reconstructed_projected_gradient": [[0.06752397439934818, 0.07419618150965145, 0.050052907617107], [0.0768128106851551, 0.08463370044480704, 0.06395378222598429], [0.05223341720662704, 0.06013282056368833, 0.12193504420664474], [0.06799432193884018, 0.07647110593338405, 0.10383395202671947]], "remainder_gradient": [[0.023239388518265416, -0.021629654412035078, 0.0007116836598063392], [-0.022261818057475617, 0.02071979983392401, -0.0006817521318465691], [0.0010801361001995385, -0.0010053225234285396, 3.307973767717465e-05], [0.0012406540151589096, -0.001154719487523298, 3.79934860838399e-05]], "exp_avg_before": [[0.0, 0.0], [0.0, 0.0], [0.0, 0.0], [0.0, 0.0]], "exp_avg_after": [[-0.010822831995644079, 0.002926576048429731], [-0.012790668217869288, 0.0028160929325476845], [-0.01405401638129671, -0.0038221763997162393], [-0.014546556160664692, -0.000960820506787921]], "exp_avg_sq_before": [[0.0, 0.0], [0.0, 0.0], [0.0, 0.0], [0.0, 0.0]], "exp_avg_sq_after": [[1.1713369240593738e-05, 8.56484736724259e-07], [1.6360119345961173e-05, 7.930379404745028e-07], [1.9751537644575654e-05, 1.460903243054781e-06], [2.116022961353722e-05, 9.231760462641985e-08]], "bias_correction1": 0.09999999999999998, "bias_correction2": 0.0010000000000000009, "normalized_low_rank_update": [[-3.161353957481349, 3.1588643860507033], [-3.1614960334301228, 3.1587306240704063], [-3.1615662798663537, -3.1596635125481574], [-3.161590361644877, -3.15190403092797]], "raw_recovery_scale": [[39.86134631479464], [34.12287607901638], [30.689601398407913], [30.623144786598967]], "applied_recovery_scale": [[39.86134631479464], [34.12287607901638], [30.689601398407913], [30.623144786598967]], "candidate_recovery_update": [[0.92635331387064, -0.862187145187456, 0.02836866883012098], [-0.7596372588688496, 0.7070191621150131, -0.023263343511605715], [0.033148946371154626, -0.03085294752086348, 0.001015203963676386], [0.03799272753628664, -0.035361142054333314, 0.0011634800252930623]], "limiter_triggered": false, "limiter_factor": 1.0, "effective_recovery_update": [[0.92635331387064, -0.862187145187456, 0.02836866883012098], [-0.7596372588688496, 0.7070191621150131, -0.023263343511605715], [0.033148946371154626, -0.03085294752086348, 0.001015203963676386], [0.03799272753628664, -0.035361142054333314, 0.0011634800252930623]], "complete_update_before_weight_decay": [[3.9702607129395155, 2.3997331810192244, -0.23064058754298736], [2.284278705642166, 3.9689550850703514, -0.28207827743136377], [0.13859581066278215, 0.2292219168873652, 4.461981031046019], [0.1470603006207279, 0.2284137057970262, 4.456349106426125]], "step_size": 0.0022135943621178667, "adam_parameter_delta": [[-0.008788546730300974, -0.005312035840091329, 0.000510544704260709], [-0.005056466464315397, -0.008785656599810768, 0.0006244068845979863], [-0.0003067949050962899, -0.0005074043428957218, -0.009877016054200332], [-0.0003255318523454019, -0.0005056152913827462, -0.009864549257613863]], "weight_decay_contribution": [[2.1395731887951375e-05, 2.18237433112335e-06, -2.8221022079259844e-05], [-2.0393913320977274e-05, 1.0459725750639294e-05, 2.2737181845381278e-05], [2.5235098542550725e-05, -1.4135675745915458e-05, 6.8568402573731646e-06], [-1.0306326872602117e-05, 2.6868693297031856e-05, -7.099026167176074e-07]], "complete_applied_update": [[-0.00876715099841302, -0.0053098534657602045, 0.0004823236821814292], [-0.005076860377636383, -0.008775196874060115, 0.0006471440664433392], [-0.0002815598065536995, -0.0005215400186416308, -0.00987015921394295], [-0.0003358381792180065, -0.00047874659808572195, -0.00986525916023058]], "parameter_before": [[-0.2968647659547186, -0.025864740318813667, 0.4026469135708799], [0.2963980853354193, -0.14063899698075058, -0.32544129039004477], [-0.3601946128456283, 0.2024456292845451, -0.0880778447654163], [0.1475587728895185, -0.38333286038050085, 0.02000601521072254]], "parameter_after": [[-0.30563191695313163, -0.03117459378457387, 0.4031292372530613], [0.2913212249577829, -0.1494141938548107, -0.32479414632360143], [-0.360476172652182, 0.20192408926590347, -0.09794800397935925], [0.14722293471030048, -0.3838116069785866, 0.010140756050491959]], "previous_recovery_norm": null, "recovery_norm_after": 1.638448949367014, "dtype": "torch.float64", "finite": true}
{"fixture_id": "shape_4x3_rank2_gap5_fp64_100step", "step_index": 2, "refresh_happened": false, "projection_orientation": "right", "projection_rank": 2, "raw_gradient": [[8.380458916962619, -2.9988878075201115, -3.2173047654532154], [1.4117967273274845, 7.676128244690166, -2.139913371226544], [1.7832771737414015, -0.8574726296020514, 12.17419117568588], [1.4401685381852265, 0.9767816528009641, -3.6902404780769547]], "projection_basis_before": [[-0.4981441795825958, 0.46507135033607483], [-0.5570803880691528, 0.4751049280166626], [-0.664465069770813, -0.7469831705093384]], "projection_basis_after": [[-0.4981441795825958, 0.46507135033607483], [-0.5570803880691528, 0.4751049280166626], [-0.664465069770813, -0.7469831705093384]], "invariant_projector_after": [[0.46443898455543753, 0.49846404330029515, -0.0164010647448265], [0.49846404330029515, 0.5360632513969961, 0.015265073471823598], [-0.0164010647448265, 0.015265073471823598, 0.9994976859697147]], "projected_gradient": [[-0.3662686126759984, 4.875997483218961], [-3.557601136376985, 5.902031842172567], [-8.499972748379728, -8.671954271548577], [1.1904784196203464, 3.890402435863153]], "reconstructed_projected_gradient": [[2.450141311324285, 2.520651494161268, -3.3989153601338375], [4.517064217928331, 4.785954235175598, -2.0448167706136786], [0.20113446809425284, 0.6150799072967263, 12.1257388815755], [1.2162848185450685, 1.1851571892565578, -3.697096472251992]], "remainder_gradient": [[5.930317605638334, -5.519539301681379, 0.18161059468062213], [-3.1052674906008466, 2.890174009514568, -0.09509660061286551], [1.5821427056471487, -1.4725525368987777, 0.04845229411037977], [0.22388371964015796, -0.2083755364555937, 0.006855994175037239]], "exp_avg_before": [[-0.010822831995644079, 0.002926576048429731], [-0.012790668217869288, 0.0028160929325476845], [-0.01405401638129671, -0.0038221763997162393], [-0.014546556160664692, -0.000960820506787921]], "exp_avg_after": [[-0.046367410063679504, 0.4902336667654827], [-0.36727171503378075, 0.5927376678565495], [-0.8626458895811396, -0.8706353859146021], [0.10595594141743639, 0.3881755051302061]], "exp_avg_sq_before": [[1.1713369240593738e-05, 8.564847367242591e-07], [1.6360119345961176e-05, 7.930379404745027e-07], [1.9751537644575654e-05, 1.460903243054781e-06], [2.1160229613537216e-05, 9.231760462641987e-08]], "exp_avg_sq_after": [[0.00014585435250295378, 0.023776207084609646], [0.012672869604777441, 0.03483477211092147], [0.07226926850930501, 0.07520425033016949], [0.0014383779369656824, 0.01513532333825699]], "bias_correction1": 0.18999999999999995, "bias_correction2": 0.001998999999999973, "normalized_low_rank_update": [[-3.838991782824764, 3.1792818389560407], [-3.262467109213667, 3.17580416042288], [-3.208884698517656, -3.1747792833289172], [2.7936844929135485, 3.1552134536943033]], "raw_recovery_scale": [[1.0193897289627238], [0.6606785644821466], [0.3717366685236586], [1.0358351045328598]], "applied_recovery_scale": [[0.19243803229387732], [0.12472136937955842], [0.07017558740263712], [0.19554255220921038]], "candidate_recovery_update": [[6.04530485667453, -5.626561672740084, 0.1851319748882385], [-2.051583668023245, 1.9094760157096944, -0.06282828558004], [0.5881404585262785, -0.5474017742928136, 0.01801149439492106], [0.2319066161366685, -0.21584269558657063, 0.007101679442976376]], "limiter_triggered": true, "limiter_factor": 5.297236293738372, "effective_recovery_update": [[1.1412186509067788, -1.0621692823842863, 0.03494878548405982], [-0.3872932137175627, 0.3604664602118658, -0.01186057825177754], [0.11102779372358625, -0.1033372392581152, 0.003400168200201235], [0.04377879393652781, -0.04074628421649015, 0.0013406385989182615]], "complete_update_before_weight_decay": [[4.532182960928592, 2.5869502190279148, 0.2109547003021513], [2.7148613171076756, 3.686763110508193, -0.21633740357256626], [0.23301614092503403, 0.17591621098649016, 4.50709865801563], [0.11952050570964787, -0.09799566487690678, -4.211856472176811]], "step_size": 0.0016472170772921693, "adam_parameter_delta": [[-0.007465489170654166, -0.004261268578887499, -0.00034748818487275514], [-0.004471965924019675, -0.006072899155559892, 0.00035635466562177907], [-0.0003838281666164348, -0.00028977218690947893, -0.007424169878523964], [-0.0001968762180915282, 0.00016142013268584127, 0.006937841908073193]], "weight_decay_contribution": [[2.1916818428665007e-05, 2.480510365442296e-06, -2.8194722434773206e-05], [-2.0079448132363427e-05, 1.0884096510725943e-05, 2.2710645416058578e-05], [2.5260200057315893e-05, -1.411440219552958e-05, 7.376052170051826e-06], [-1.0291824094454629e-05, 2.6855513079213054e-05, -1.1955018570995608e-06]], "complete_applied_update": [[-0.00744357235222548, -0.0042587880685220555, -0.0003756829073074952], [-0.0044920453721520315, -0.006062015059049158, 0.0003790653110378184], [-0.00035856796655908685, -0.000303886589105018, -0.007416793826353921], [-0.0002071680421859845, 0.00018827564576506806, 0.006936646406216093]], "parameter_before": [[-0.30563191695313163, -0.03117459378457387, 0.4031292372530613], [0.2913212249577829, -0.1494141938548107, -0.32479414632360143], [-0.360476172652182, 0.20192408926590347, -0.09794800397935925], [0.14722293471030048, -0.3838116069785866, 0.010140756050491959]], "parameter_after": [[-0.3130754893053571, -0.03543338185309593, 0.40275355434575383], [0.28682917958563087, -0.15547620891385985, -0.3244150810125636], [-0.3608347406187411, 0.20162020267679845, -0.10536479780571317], [0.1470157666681145, -0.3836233313328215, 0.017077402456708052]], "previous_recovery_norm": 1.638448949367014, "recovery_norm_after": 1.654833448960684, "dtype": "torch.float64", "finite": true}
{"fixture_id": "shape_4x3_rank2_gap5_fp64_100step", "step_index": 3, "refresh_happened": false, "projection_orientation": "right", "projection_rank": 2, "raw_gradient": [[2.925423943591455, -0.38433208626863624, 1.960999478292161], [0.20258865933820716, 2.1811335979956086, -0.1519092559487905], [-0.3161133660438417, -0.15663998297794504, 2.1266785440609364], [0.5247664342733233, 1.175652282008484, -0.27661361767601783]], "projection_basis_before": [[-0.4981441795825958, 0.46507135033607483], [-0.5570803880691528, 0.4751049280166626], [-0.664465069770813, -0.7469831705093384]], "projection_basis_after": [[-0.4981441795825958, 0.46507135033607483], [-0.5570803880691528, 0.4751049280166626], [-0.664465069770813, -0.7469831705093384]], "invariant_projector_after": [[0.46443898455543753, 0.49846404330029515, -0.0164010647448265], [0.49846404330029515, 0.5360632513969961, 0.015265073471823598], [-0.0164010647448265, 0.015265073471823598, 0.9994976859697147]], "projected_gradient": [[-2.546194697709617, -0.28690081209142776], [-1.215046718347985, 1.243959160069965], [-1.1683725112720396, -1.8100287793393812], [-0.732542087600588, 1.0092377441524973]], "reconstructed_projected_gradient": [[1.1349427206562361, 1.2821271406230728, 1.9061675157014535], [1.1837982170026504, 1.2678898245801549, -0.12186045489130493], [-0.2597745624800559, -0.2090761809273659, 2.1284037585247546], [0.8342791377206529, 0.887578656224794, -0.2671349805771432]], "remainder_gradient": [[1.790481222935219, -1.6664592268917091, 0.05483196259070744], [-0.9812095576644433, 0.9132437734154537, -0.030048801057485586], [-0.05633880356378579, 0.052436197949420865, -0.0017252144638182365], [-0.3095127034473296, 0.28807362578369, -0.009478637098874643]], "exp_avg_before": [[-0.046367410063679504, 0.49023366676548275], [-0.36727171503378075, 0.5927376678565495], [-0.8626458895811396, -0.8706353859146021], [0.10595594141743639, 0.3881755051302061]], "exp_avg_after": [[-0.2963501388282732, 0.4125202188797917], [-0.45204921536520115, 0.6578598170778911], [-0.8932185517502296, -0.96457472525708], [0.022106138515633977, 0.45028172903243524]], "exp_avg_sq_before": [[0.0001458543525029538, 0.023776207084609646], [0.01267286960477744, 0.03483477211092147], [0.07226926850930501, 0.07520425033016949], [0.0014383779369656824, 0.015135323338256991]], "exp_avg_sq_after": [[0.006628815936795025, 0.023834742953503758], [0.014136535262940871, 0.036347371730732526], [0.07356209356589183, 0.07840525026187613], [0.0019735574691349448, 0.016138748839140758]], "bias_correction1": 0.2709999999999999, "bias_correction2": 0.002997000999999999, "normalized_low_rank_update": [[-3.639836039921351, 2.672004530356917], [-3.801986554393652, 3.4505996638774934], [-3.2932833085287876, -3.4447820877596484], [0.49759753744747653, 3.544426500895748]], "raw_recovery_scale": [[1.762204173644947], [2.952653233553751], [2.2121278234864556], [2.8700796033660154]], "applied_recovery_scale": [[0.49250679304312805], [0.8252175297134304], [0.6182529791047366], [0.8021395717776182]], "candidate_recovery_update": [[3.1551934838893514, -2.9366414048377014, 0.09662511332648825], [-2.8971715732317644, 2.6964921805979687, -0.08872368960679819], [-0.12462863490538843, 0.11599557244175733, -0.0038163949168935883], [-0.888326097146855, 0.8267942376294629, -0.027204443005188532]], "limiter_triggered": true, "limiter_factor": 3.578030188693526, "effective_recovery_update": [[0.8818241651117626, -0.8207424895735662, 0.02700511405181009], [-0.8097113273070597, 0.7536247707240725, -0.024796797379508573], [-0.03483163314250712, 0.032418835595155134, -0.0010666189818502056], [-0.24827238740297392, 0.23107525482655492, -0.007603189903526751]], "complete_update_before_weight_decay": [[3.9376600580707493, 2.4764213041093277, 0.44960660657114476], [2.689001190764138, 4.511033820800226, -0.07604941332830528], [0.0036288215497198018, 0.23040943329389907, 4.760399350023265], [1.152263514481487, 1.6378479231314855, -2.9858663176177753]], "step_size": 0.0014140741820727752, "adam_parameter_delta": [[-0.005568143425897031, -0.0035018434300759928, -0.0006357770944416076], [-0.0038024471594225173, -0.006378936460450706, 0.0001075395119493377], [-5.131422864808089e-06, -0.000325816030926922, -0.00673155781722392], [-0.0016293860867727101, -0.002316038462261749, 0.004222236470864005]], "weight_decay_contribution": [[2.230505429118779e-05, 2.7254657698220347e-06, -2.8148244407591857e-05], [-1.9811871269834587e-05, 1.132986017620174e-05, 2.2701527905043e-05], [2.5258791042912415e-05, -1.4090607065211008e-05, 7.846744893605598e-06], [-1.0177046640693926e-05, 2.701575588565583e-05, -1.490974724930044e-06]], "complete_applied_update": [[-0.005545838371605827, -0.0034991179643061726, -0.0006639253388492361], [-0.003822259030692332, -0.006367606600274495, 0.00013024103985442848], [2.012736817813554e-05, -0.0003399066379921323, -0.006723711072330316], [-0.001639563133413402, -0.002289022706376098, 0.004220745496139076]], "parameter_before": [[-0.3130754893053571, -0.03543338185309593, 0.40275355434575383], [0.28682917958563087, -0.15547620891385985, -0.3244150810125636], [-0.3608347406187411, 0.20162020267679845, -0.10536479780571317], [0.1470157666681145, -0.3836233313328215, 0.017077402456708052]], "parameter_after": [[-0.31862132767696294, -0.0389324998174021, 0.4020896290069046], [0.28300692055493853, -0.16184381551413435, -0.3242848399727092], [-0.36081461325056297, 0.20128029603880632, -0.11208850887804349], [0.1453762035347011, -0.3859123540391976, 0.021298147952847128]], "previous_recovery_norm": 1.654833448960684, "recovery_norm_after": 1.6713817935502908, "dtype": "torch.float64", "finite": true}
{"fixture_id": "shape_4x3_rank2_gap5_fp64_100step", "step_index": 4, "refresh_happened": false, "projection_orientation": "right", "projection_rank": 2, "raw_gradient": [[2.2972656789892016, -0.8537744840154905, 0.8373425952439957], [-0.8714881689055844, 1.7828462490483536, 0.2707360146751295], [-1.3621704965343602, 0.6307888582185095, 1.7750811818873877], [0.1754074375174428, 0.7293218438758076, 1.3716257709079367]], "projection_basis_before": [[-0.4981441795825958, 0.46507135033607483], [-0.5570803880691528, 0.4751049280166626], [-0.664465069770813, -0.7469831705093384]], "projection_basis_after": [[-0.4981441795825958, 0.46507135033607483], [-0.5570803880691528, 0.4751049280166626], [-0.664465069770813, -0.7469831705093384]], "invariant_projector_after": [[0.46443898455543753, 0.49846404330029515, -0.0164010647448265], [0.49846404330029515, 0.5360632513969961, 0.015265073471823598], [-0.0164010647448265, 0.015265073471823598, 0.9994976859697147]], "projected_gradient": [[-1.2251334120353157, 0.03727916003970753], [-0.7389565462526609, 0.23949961269097056], [-0.8523222388499994, -1.659771346291283], [-1.4050665034342442, -0.596499991144303]], "reconstructed_projected_gradient": [[0.6276305477166201, 0.7002093092603058, 0.7862114529462144], [0.4794913107593769, 0.5254456458002353, 0.3121086330397136], [-0.3473327388568777, -0.3137535424253124, 1.806159618477896], [0.4225106442553005, 0.49933490764156246, 1.379193066830831]], "remainder_gradient": [[1.6696351312725817, -1.5539837932757963, 0.05113114229778126], [-1.3509794796649612, 1.2574006032481182, -0.04137261836458411], [-1.0148377576774825, 0.9445424006438219, -0.03107843659050835], [-0.24710320673785768, 0.2299869362342451, -0.00756729592289429]], "exp_avg_before": [[-0.2963501388282732, 0.4125202188797917], [-0.45204921536520115, 0.6578598170778911], [-0.8932185517502296, -0.96457472525708], [0.02210613851563397, 0.4502817290324352]], "exp_avg_after": [[-0.38922846614897744, 0.3749961129957833], [-0.48073994845394713, 0.6160237966391992], [-0.8891289204602066, -1.0340943873605002], [-0.12061112567935381, 0.3456035570147614]], "exp_avg_sq_before": [[0.006628815936795024, 0.023834742953503758], [0.014136535262940871, 0.036347371730732526], [0.07356209356589183, 0.07840525026187613], [0.0019735574691349448, 0.016138748839140758]], "exp_avg_sq_after": [[0.008123138998143525, 0.02381229794632352], [0.014668455504927591, 0.036368384423480914], [0.07421498467116422, 0.08108168593358384], [0.003945795790738745, 0.01647842232973677]], "bias_correction1": 0.3439, "bias_correction2": 0.003994003998999962, "normalized_low_rank_update": [[-4.318548823303859, 2.430095256792507], [-3.969304649057968, 3.23022822230913], [-3.263753431393928, -3.6315938383848776], [-1.9200527240984417, 2.692260043868568]], "raw_recovery_scale": [[4.042849958719036], [6.588051543064081], [2.616904464002561], [2.1663395755676897]], "applied_recovery_scale": [[0.43451696670396334], [0.7080698522605033], [0.28125935947737646], [0.23283359779314575]], "candidate_recovery_update": [[6.750084321541209, -6.282523314495104, 0.20671553652784214], [-8.900322445654657, 8.283819984478471, -0.2725649422573997], [-2.6557334583045535, 2.471777224684513, -0.08132929944792185], [-0.5353094560059057, 0.49822980182780785, -0.016393332637797926]], "limiter_triggered": true, "limiter_factor": 9.304239577538596, "effective_recovery_update": [[0.7254847927429359, -0.6752323241613178, 0.022217348855340633], [-0.9565878405733408, 0.8903274593741628, -0.029294703773041258], [-0.28543261769782574, 0.2656613906043048, -0.00874110116900464], [-0.057533928650998906, 0.05354868580884208, -0.001761920735292881]], "complete_update_before_weight_decay": [[4.006912435836803, 2.8850967622724166, 1.0765019344820295], [2.52298476858803, 4.63624658067364, 0.19524346783565613], [-0.34856309254603973, 0.3584462895556608, 4.872648529735805], [2.1510221744081623, 2.4022784168071487, -0.7370268968581358]], "step_size": 0.001286382466214896, "adam_parameter_delta": [[-0.005154421901118883, -0.003711337888320603, -0.0013847932133640997], [-0.003245523368838889, -0.005963986310427336, -0.00025115777366678006], [0.00044838545062086564, -0.0004610990219641897, -0.006268089632679933], [-0.0027670372095981, -0.0030902488343471962, 0.0009480984772470806]], "weight_decay_contribution": [[2.266430247046573e-05, 2.9850686394005897e-06, -2.8049338505547837e-05], [-1.9583297803026978e-05, 1.1746546127719318e-05, 2.2717519842246323e-05], [2.522563594599595e-05, -1.405734379117895e-05, 8.28496189575064e-06], [-9.982641642757212e-06, 2.723018220114814e-05, -1.5572372501065948e-06]], "complete_applied_update": [[-0.005131757598648423, -0.003708352819681203, -0.0014128425518696308], [-0.003265106666641926, -0.005952239764299622, -0.0002284402538245689], [0.0004736110865668497, -0.0004751563657553748, -0.006259804670784172], [-0.0027770198512408473, -0.003063018652146088, 0.0009465412399969723]], "parameter_before": [[-0.31862132767696294, -0.0389324998174021, 0.4020896290069046], [0.28300692055493853, -0.16184381551413435, -0.3242848399727092], [-0.36081461325056297, 0.20128029603880632, -0.11208850887804347], [0.1453762035347011, -0.3859123540391976, 0.021298147952847128]], "parameter_after": [[-0.32375308527561136, -0.0426408526370833, 0.40067678645503496], [0.2797418138882966, -0.16779605527843397, -0.32451328022653375], [-0.3603410021639961, 0.20080513967305094, -0.11834831354882765], [0.14259918368346025, -0.3889753726913437, 0.0222446891928441]], "previous_recovery_norm": 1.6713817935502908, "recovery_norm_after": 1.6880956215857936, "dtype": "torch.float64", "finite": true}
{"fixture_id": "shape_4x3_rank2_gap5_fp64_100step", "step_index": 5, "refresh_happened": false, "projection_orientation": "right", "projection_rank": 2, "raw_gradient": [[2.2246242100714673, -0.47885506545782724, 0.08062813111292044], [-0.12811432913557064, 2.4808305211537207, -0.3839026775510799], [-0.440993258349654, -0.6136461420652444, 1.994385351886815], [-1.2074142765652875, 0.5318658428507632, -0.12623204166636953]], "projection_basis_before": [[-0.4981441795825958, 0.46507135033607483], [-0.5570803880691528, 0.4751049280166626], [-0.664465069770813, -0.7469831705093384]], "projection_basis_after": [[-0.4981441795825958, 0.46507135033607483], [-0.5570803880691528, 0.4751049280166626], [-0.664465069770813, -0.7469831705093384]], "invariant_projector_after": [[0.46443898455543753, 0.49846404330029515, -0.0164010647448265], [0.49846404330029515, 0.5360632513969961, 0.015265073471823598], [-0.0164010647448265, 0.015265073471823598, 0.9994976859697147]], "projected_gradient": [[-0.8949974130769422, 0.7468747269525339], [-1.0631127026539196, 1.4058413413699278], [-0.763670946150471, -1.9864119296731855], [0.3890511464530548, -0.21454849433132814]], "reconstructed_projected_gradient": [[0.7931877898614612, 0.8534293695840389, 0.03679166701256742], [1.183399936056564, 1.2601613862500993, -0.3437385662664355], [-0.5434050415156053, -0.5183279898201771, 1.9912489496806645], [-0.29358392213676776, -0.31866581060018556, -0.09824678264872352]], "remainder_gradient": [[1.431436420210006, -1.332284435041866, 0.04383646410035302], [-1.3115142651921345, 1.2206691349036214, -0.040164111284644366], [0.10241178316595129, -0.09531815224506723, 0.0031364022061506347], [-0.9138303544285198, 0.8505316534509488, -0.027985259017646008]], "exp_avg_before": [[-0.38922846614897744, 0.3749961129957833], [-0.48073994845394713, 0.6160237966391992], [-0.8891289204602066, -1.0340943873605002], [-0.12061112567935382, 0.34560355701476136]], "exp_avg_after": [[-0.4398053608417739, 0.4121839743914584], [-0.5389772238739443, 0.695005551112272], [-0.8765831230292331, -1.1293261415917686], [-0.06964489846611298, 0.2895883518801524]], "exp_avg_sq_before": [[0.008123138998143525, 0.02381229794632352], [0.014668455504927591, 0.036368384423480914], [0.07421498467116422, 0.08108168593358384], [0.003945795790738745, 0.01647842232973677]], "exp_avg_sq_after": [[0.0089160362285598, 0.02434630750613762], [0.015783995667966785, 0.03830840591616223], [0.0747239630004874, 0.0849464366019982], [0.004093210789504443, 0.01650797496382687]], "bias_correction1": 0.40950999999999993, "bias_correction2": 0.004990009995000988, "normalized_low_rank_update": [[-4.657683856252307, 2.641628659207177], [-4.2900117315215, 3.550904679100366], [-3.2067238935346674, -3.8747644671940757], [-1.0885552240368344, 2.2538800959496728]], "raw_recovery_scale": [[4.593525650457282], [3.1595861134402], [2.3633664627311184], [5.633696168268197]], "applied_recovery_scale": [[0.6145900635389985], [0.42273634196923227], [0.31620625528699525], [0.7537595192639629]], "candidate_recovery_update": [[6.575339913233412, -6.119882726069801, 0.20136392227032143], [-4.143842259879796, 3.8568092477465443, -0.12690196827362918], [0.24203657372290058, -0.22527172430549075, 0.007412467787652302], [-5.14824256619112, 4.791636917037424, -0.15766044649570532]], "limiter_triggered": true, "limiter_factor": 7.4741293798444275, "effective_recovery_update": [[0.8797466004489043, -0.8188087755843992, 0.026941455256760994], [-0.5544247429077886, 0.5160212048439042, -0.016978829482915722], [0.03238324645216919, -0.030140195982288405, 0.0009917499966807628], [-0.6888083286428579, 0.6410963302239707, -0.02109415538361834]], "complete_update_before_weight_decay": [[4.428490511400767, 3.0309463485394432, 1.1485575326089297], [3.234043665514594, 4.59295491701913, 0.18111807964928806], [-0.17224785344728685, -0.08465689820913463, 5.0261316123314845], [0.901664180084236, 2.3183386376094717, -0.9813977325149785]], "step_size": 0.0012074919283316969, "adam_parameter_delta": [[-0.005347366547209935, -0.003659843251067808, -0.0013868739498498523], [-0.0039050816219811262, -0.005545955989491978, -0.0002186986192514527], [0.00020798789271005993, 0.00010222252126512816, -0.006069013352623045], [-0.0010887522195175325, -0.0027993751920529397, 0.0011850298404948662]], "weight_decay_contribution": [[2.3037031627597493e-05, 3.2410487121705777e-06, -2.795029387536296e-05], [-1.9308571258642087e-05, 1.2133940788754817e-05, 2.2731238519204967e-05], [2.5209310998990028e-05, -1.4063515353602126e-05, 8.709212883101549e-06], [-9.90573020247599e-06, 2.7424232351837766e-05, -1.6400803323337278e-06]], "complete_applied_update": [[-0.005324329515582316, -0.003656602202355641, -0.0014148242437252434], [-0.003924390193239757, -0.00553382204870323, -0.00019596738073224262], [0.00023319720370901242, 8.815900591152559e-05, -0.006060304139739944], [-0.0010986579497200277, -0.002771950959701064, 0.0011833897601625301]], "parameter_before": [[-0.32375308527561136, -0.042640852637083296, 0.40067678645503496], [0.2797418138882966, -0.16779605527843397, -0.32451328022653375], [-0.3603410021639961, 0.20080513967305094, -0.11834831354882765], [0.14259918368346025, -0.3889753726913437, 0.0222446891928441]], "parameter_after": [[-0.3290774147911937, -0.04629745483943894, 0.3992619622113097], [0.27581742369505685, -0.1733298773271372, -0.324709247607266], [-0.3601078049602871, 0.20089329867896247, -0.12440861768856759], [0.14150052573374022, -0.39174732365104475, 0.02342807895300663]], "previous_recovery_norm": 1.6880956215857936, "recovery_norm_after": 1.7049765879016516, "dtype": "torch.float64", "finite": true}
{"fixture_id": "shape_4x3_rank2_gap5_fp64_100step", "step_index": 6, "refresh_happened": true, "projection_orientation": "right", "projection_rank": 2, "raw_gradient": [[1.2313874833913885, 0.3445640659931334, 0.4210080919682046], [0.11109724276816553, 1.7824134880515714, -0.7105923795609493], [-0.6851293867028889, 0.8016851266033276, 1.3068915108686139], [0.19647292535905764, 1.1428661339042308, 0.8273875503879796]], "projection_basis_before": [[-0.4981441795825958, 0.46507135033607483], [-0.5570803880691528, 0.4751049280166626], [-0.664465069770813, -0.7469831705093384]], "projection_basis_after": [[-0.05269285663962364, -0.384724885225296], [-0.9442865252494812, -0.2810218036174774], [-0.32487884163856506, 0.8792117834091187]], "invariant_projector_after": [[0.1507897744524611, 0.15787323564423894, -0.3211358582330931], [0.15787323564423894, 0.9706502958761591, 0.05970103136258764], [-0.3211358582330931, 0.05970103136258764, 0.8785596218298588]], "projected_gradient": [[-0.527029149971751, -0.20042014813374448], [-1.4581066411273138, -1.1684001204879126], [-1.1455004381895875, 1.187329740445405], [-1.3583465190554636, 0.3306905578453756]], "reconstructed_projected_gradient": [[0.10487728993195586, 0.5539889562418393, -0.0049911361192091774], [0.526344406458139, 1.7052163627996946, -0.5535631571146662], [-0.396435607747289, 0.7480150833011647, 1.4160631540471924], [-0.055649728516629915, 1.1897370575586348, 0.732045078774305]], "remainder_gradient": [[1.1265101934594326, -0.20942489024870592, 0.42599922808741375], [-0.41524716368997344, 0.07719712525187683, -0.15702922244628315], [-0.28869377895559994, 0.05367004330216285, -0.10917164317857853], [0.25212265387568755, -0.04687092365440404, 0.0953424716136746]], "exp_avg_before": [[-0.4398053608417739, 0.4121839743914584], [-0.5389772238739443, 0.695005551112272], [-0.8765831230292331, -1.1293261415917686], [-0.06964489846611298, 0.2895883518801524]], "exp_avg_after": [[-0.4485277397547716, 0.3509235621389381], [-0.6308901655992812, 0.5086649839522536], [-0.9034748545452685, -0.8976605533880512], [-0.19851506052504803, 0.29369857247667475]], "exp_avg_sq_before": [[0.0089160362285598, 0.02434630750613762], [0.015783995667966785, 0.03830840591616223], [0.0747239630004874, 0.0849464366019982], [0.004093210789504443, 0.01650797496382687]], "exp_avg_sq_after": [[0.009184879917251186, 0.024362129434409435], [0.0178942866491984, 0.03963525635180224], [0.07596141029137946, 0.08627124207794236], [0.005934222844545035, 0.01660082323391113]], "bias_correction1": 0.46855899999999995, "bias_correction2": 0.0059850199850060015, "normalized_low_rank_update": [[-4.680023510466693, 2.2482889374460133], [-4.71621196791747, 2.554987766570403], [-3.2780681974343144, -3.056170906264511], [-2.576949437260176, 2.279468800692217]], "raw_recovery_scale": [[9.208201589543256], [2.8706822484177756], [2.716488314366528], [2.4609385702559434]], "applied_recovery_scale": [[1.393095169621504], [0.4343012622932125], [0.4109734905646197], [0.37231174856683996]], "candidate_recovery_update": [[10.373132954049828, -1.9284266072780558, 3.9226867692187235], [-1.192042661510637, 0.22160841708944642, -0.45078100135939114], [-0.7842332769632007, 0.1457940454618709, -0.29656349295480083], [0.6204583633579687, -0.11534646384464456, 0.23463196577762424]], "limiter_triggered": true, "limiter_factor": 6.609886955566052, "effective_recovery_update": [[1.5693359090377215, -0.2917488030039858, 0.5934574669110654], [-0.18034236735423168, 0.033526808942297336, -0.06819798952534242], [-0.11864549004167366, 0.022056965034644153, -0.04486665126777557], [0.09386822611776942, -0.01745059554271403, 0.035497122319171494]], "complete_update_before_weight_decay": [[0.9509670135325909, 3.495716123526187, 4.090620210143637], [-0.9147990614925128, 3.7689749500848975, 3.7103748423684673], [1.229870288682145, 3.9763432529624367, -1.6669131253729794], [-0.6473133193380777, 1.7753476006510087, 2.8768292999394585]], "step_size": 0.0011557570687881632, "adam_parameter_delta": [[-0.0010990868480746608, -0.004040198620242147, -0.00472776322360123], [0.0010572854818407492, -0.004356019440646135, -0.004288291951921123], [-0.001421431279836928, -0.004595686822539456, 0.0019265466277055907], [0.0007481369445457129, -0.0020518705390085083, -0.003324915799101932]], "weight_decay_contribution": [[2.3112355114748786e-05, 3.523635742177676e-06, -2.7617393929139596e-05], [-1.9381229642382834e-05, 1.2438012773744836e-05, 2.30298277691431e-05], [2.5307046536808685e-05, -1.3740832829949612e-05, 8.573744974260341e-06], [-9.957406387480016e-06, 2.756594359330373e-05, -1.407221420773329e-06]], "complete_applied_update": [[-0.0010759744929598747, -0.004036674984499965, -0.004755380617530391], [0.0010379042521983517, -0.004343581427872389, -0.004265262124151958], [-0.0013961242333001, -0.004609427655369425, 0.0019351203726798577], [0.0007381795381582179, -0.002024304595415194, -0.003326323020522704]], "parameter_before": [[-0.3290774147911937, -0.04629745483943894, 0.3992619622113097], [0.27581742369505685, -0.1733298773271372, -0.324709247607266], [-0.3601078049602871, 0.20089329867896247, -0.12440861768856759], [0.14150052573374022, -0.39174732365104475, 0.02342807895300663]], "parameter_after": [[-0.33015338928415355, -0.0503341298239389, 0.3945065815937793], [0.2768553279472552, -0.1776734587550096, -0.32897450973141795], [-0.3615039291935872, 0.19628387102359304, -0.12247349731588773], [0.14223870527189844, -0.39377162824645995, 0.020101755932483926]], "previous_recovery_norm": 1.7049765879016516, "recovery_norm_after": 1.722026363880668, "dtype": "torch.float64", "finite": true}
{"fixture_id": "shape_4x3_rank2_gap5_fp64_100step", "step_index": 7, "refresh_happened": false, "projection_orientation": "right", "projection_rank": 2, "raw_gradient": [[1.8971471774894384, -0.42144503763286856, 0.9547503137631457], [0.3608208265204984, 2.247003649605564, 1.1215243382425513], [0.016356241126588213, -0.6543650397904508, 3.3629197201454333], [-0.7542632745255713, 0.1971799659184018, 0.39079928516704215]], "projection_basis_before": [[-0.05269285663962364, -0.384724885225296], [-0.9442865252494812, -0.2810218036174774], [-0.32487884163856506, 0.8792117834091187]], "projection_basis_after": [[-0.05269285663962364, -0.384724885225296], [-0.9442865252494812, -0.2810218036174774], [-0.32487884163856506, 0.8792117834091187]], "invariant_projector_after": [[0.1507897744524611, 0.15787323564423894, -0.3211358582330931], [0.15787323564423894, 0.9706502958761591, 0.05970103136258764], [-0.3211358582330931, 0.05970103136258764, 0.8785596218298588]], "projected_gradient": [[-0.012179410067166654, 0.2279832405602167], [-2.505187476471074, 0.21578364414576007], [-0.4754952306047189, 3.1343168353267514], [-0.27341251735103766, 0.5783673185286082]], "reconstructed_projected_gradient": [[-0.08706905814919602, -0.05256740864487598, 0.20440238415480042], [0.048988146825597156, 2.3049748683863935, 1.0036019280432749], [-1.1807944827117183, -0.4318076310917168, 2.9102066342803816], [-0.20810541365872418, 0.0956459289628113, 0.5973333035155767]], "remainder_gradient": [[1.9842162356386344, -0.3688776289879926, 0.7503479296083453], [0.31183267969490125, -0.05797121878082967, 0.1179224101992764], [1.1971507238383066, -0.22255740869873397, 0.45271308586505166], [-0.5461578608668471, 0.10153403695559052, -0.20653401834853452]], "exp_avg_before": [[-0.4485277397547716, 0.3509235621389381], [-0.6308901655992812, 0.5086649839522536], [-0.9034748545452685, -0.8976605533880512], [-0.198515060525048, 0.29369857247667475]], "exp_avg_after": [[-0.40489290678601114, 0.338629529981066], [-0.8183198966864604, 0.47937684997160424], [-0.8606768921512136, -0.494462814516571], [-0.20600480620764697, 0.3221654470818681]], "exp_avg_sq_before": [[0.009184879917251186, 0.024362129434409435], [0.0178942866491984, 0.03963525635180224], [0.07596141029137946, 0.08627124207794236], [0.005934222844545035, 0.01660082323391113]], "exp_avg_sq_after": [[0.00917584337536352, 0.024389743662951362], [0.024152356654816715, 0.03964218367653126], [0.0761115445954159, 0.09600891286007712], [0.006003043026344721, 0.016918731165819195]], "bias_correction1": 0.5217030999999999, "bias_correction2": 0.006979034965020947, "normalized_low_rank_update": [[-4.226809149449454, 2.1682953028541565], [-5.265511427803578, 2.4076651763917494], [-3.1197033625246546, -1.5957926444149435], [-2.6588021390017493, 2.4768044877075397]], "raw_recovery_scale": [[20.80746487691735], [2.302621795428123], [1.1053491399447624], [5.679995075658007]], "applied_recovery_scale": [[0.8049526656400589], [0.0890786822496064], [0.04276127543286287], [0.21973494628100443]], "candidate_recovery_update": [[41.286509631260046, -7.675408309048206, 15.612838190793298], [0.7180327247922363, -0.13348579187227055, 0.27153071189426947], [1.323269522978922, -0.24600364029348057, 0.5004060201026742], [-3.1021739602556027, 0.5767128299194322, -1.1731122071755364]], "limiter_triggered": true, "limiter_factor": 25.84930240633749, "effective_recovery_update": [[1.597200148083602, -0.2969290307488693, 0.6039945660957368], [0.027777644189585397, -0.005163999777399941, 0.010504372908249087], [0.051191691836700984, -0.009516838652990795, 0.019358588956736773], [-0.12000996821852496, 0.022310576156130198, -0.04538274142701521]], "complete_update_before_weight_decay": [[0.9857256351134778, 3.0850516370940912, 3.8835862065761817], [-0.6210562256591186, 4.290381079668074, 3.8380052197951224], [0.8295189158422752, 3.384829536487529, -0.3701554932175332], [-0.9327984105337623, 1.8369455449765455, 2.9960415084310665]], "step_size": 0.001120914042057598, "adam_parameter_delta": [[-0.0011049137060148413, -0.003458077700491548, -0.004353166312492442], [0.0006961506442485984, -0.004809148397978183, -0.004302073944358711], [-0.0009298194009200012, -0.0037941029574201823, 0.000414912490092289], [0.0010455868367763024, -0.002059058055859357, -0.00335830499738781]], "weight_decay_contribution": [[2.318808120931179e-05, 3.765454526710132e-06, -2.7310739069690086e-05], [-1.942860350140527e-05, 1.2773782500709146e-05, 2.3329360857304368e-05], [2.5370362401615508e-05, -1.34742837646321e-05, 8.544100937805682e-06], [-1.0029900447607233e-05, 2.7708148041162357e-05, -1.1720415654567283e-06]], "complete_applied_update": [[-0.0010817256248055185, -0.00345431224596484, -0.004380477051562137], [0.0006767220407472019, -0.0047963746154774944, -0.004278744583501415], [-0.0009044490385183845, -0.0038075772411848285, 0.0004234565910300886], [0.001035556936328702, -0.002031349907818225, -0.0033594770389532673]], "parameter_before": [[-0.33015338928415355, -0.0503341298239389, 0.3945065815937793], [0.2768553279472552, -0.1776734587550096, -0.32897450973141795], [-0.3615039291935872, 0.19628387102359304, -0.12247349731588773], [0.14223870527189844, -0.39377162824645995, 0.020101755932483926]], "parameter_after": [[-0.33123511490895907, -0.05378844206990374, 0.3901261045422172], [0.2775320499880024, -0.18246983337048708, -0.33325325431491937], [-0.3624083782321056, 0.19247629378240821, -0.12205004072485764], [0.14327426220822714, -0.3958029781542782, 0.01674227889353066]], "previous_recovery_norm": 1.722026363880668, "recovery_norm_after": 1.7392466376194746, "dtype": "torch.float64", "finite": true}
{"fixture_id": "shape_4x3_rank2_gap5_fp64_100step", "step_index": 8, "refresh_happened": false, "projection_orientation": "right", "projection_rank": 2, "raw_gradient": [[0.08455951116592858, 0.020476515339896424, 0.06450309112916319], [0.06508536077419647, 0.07314618561304966, 0.08265042745586432], [0.0849028829911211, 0.07563390495957617, 0.13154727606271652], [0.07471278328573855, 0.08471192403976432, 0.11399919262852706]], "projection_basis_before": [[-0.05269285663962364, -0.384724885225296], [-0.9442865252494812, -0.2810218036174774], [-0.32487884163856506, 0.8792117834091187]], "projection_basis_after": [[-0.05269285663962364, -0.384724885225296], [-0.9442865252494812, -0.2810218036174774], [-0.32487884163856506, 0.8792117834091187]], "invariant_projector_after": [[0.1507897744524611, 0.15787323564423894, -0.3211358582330931], [0.15787323564423894, 0.9706502958761591, 0.05970103136258764], [-0.3211358582330931, 0.05970103136258764, 0.8785596218298588]], "projected_gradient": [[-0.04474706924706076, 0.018425382286434824], [-0.09935186616520662, 0.027071598760578738], [-0.11863077941503343, 0.06173888688928389], [-0.12096508402641726, 0.04767966880209744]], "reconstructed_projected_gradient": [[-0.0047308521805021556, 0.03707612037192949, 0.030737189243756905], [-0.005179984085306614, 0.08620891896768795, 0.05607898782040659], [-0.017501491519654105, 0.09467147313449761, 0.09282218704665733], [-0.01196955927646303, 0.10082667234916769, 0.08121952301706234]], "remainder_gradient": [[0.08929036334643073, -0.016599605032033067, 0.03376590188540629], [0.07026534485950307, -0.013062733354638298, 0.02657143963545773], [0.1024043745107752, -0.019037568174921443, 0.038725089016059186], [0.08668234256220159, -0.016114748309403362, 0.03277966961146472]], "exp_avg_before": [[-0.40489290678601114, 0.338629529981066], [-0.8183198966864604, 0.47937684997160424], [-0.8606768921512136, -0.494462814516571], [-0.20600480620764697, 0.3221654470818681]], "exp_avg_after": [[-0.3688783230321161, 0.3066091152116029], [-0.7464230936343351, 0.4341463248505017], [-0.7864722808775956, -0.4388426443759855], [-0.197500833989524, 0.29471686925389107]], "exp_avg_sq_before": [[0.00917584337536352, 0.024389743662951362], [0.024152356654816715, 0.03964218367653126], [0.0761115445954159, 0.09600891286007714], [0.006003043026344721, 0.016918731165819195]], "exp_avg_sq_after": [[0.009168669832194358, 0.024365693414000814], [0.024138075091472408, 0.039603274364314184], [0.07604950631264511, 0.09591671563737139], [0.006011672534871894, 0.016904085785470452]], "bias_correction1": 0.5695327899999999, "bias_correction2": 0.00797205593005601, "normalized_low_rank_update": [[-3.8523472936814143, 1.9642324974737402], [-4.804309254722703, 2.1815662157777997], [-2.8518957512278407, -1.416968746903656], [-2.547215417411585, 2.266761411446981]], "raw_recovery_scale": [[89.35774917015108], [51.240269273251045], [23.812161583879764], [26.224398863010165]], "applied_recovery_scale": [[15.442926640273075], [8.855412393030363], [4.115249856909105], [4.532135954494319]], "candidate_recovery_update": [[7.978785891222009, -1.4833033427759885, 3.0172449911800667], [3.6004151911787834, -0.6693379745363444, 1.3615277218987896], [2.4384695127467175, -0.45332564954535637, 0.9221280770005288], [2.273192325731257, -0.4225995872428125, 0.8596271304887444]], "limiter_triggered": true, "limiter_factor": 5.786322194726878, "effective_recovery_update": [[1.3789045308422578, -0.25634648276719446, 0.5214443457589877], [0.6222286056693958, -0.11567589083551508, 0.23530105584849054], [0.42141958755233405, -0.0783443497077428, 0.15936341703212992], [0.39285616134594703, -0.07303423021067353, 0.14856191922256412]], "complete_update_before_weight_decay": [[0.8262065923678734, 2.8293809980733386, 3.499966829253701], [0.036078572504418815, 3.8079009288616787, 3.714178204595322], [1.116837260043275, 3.012861492517416, -0.15993161383517135], [-0.34500330568621507, 1.6952575851434895, 2.969061656556405]], "step_size": 0.001097398786189858, "adam_parameter_delta": [[-0.0009066781116065631, -0.003104959272954331, -0.0038408593501277778], [-3.9592581673812e-05, -0.004178785857264039, -0.004075934653415733], [-0.0012256158535430969, -0.003306310544846777, 0.00017550875889610216], [0.000378606208891541, -0.0018603736162156152, -0.0032582446580278483]], "weight_decay_contribution": [[2.3249925511439596e-05, 3.982538094000065e-06, -2.703996716344626e-05], [-1.9424472018443004e-05, 1.306540334594258e-05, 2.3613043227783456e-05], [2.5454379585995408e-05, -1.3241898826629301e-05, 8.53121723761731e-06], [-1.005570078919831e-05, 2.783643462393457e-05, -9.438823964851968e-07]], "complete_applied_update": [[-0.0008834281860951032, -0.0031009767348603307, -0.003867899317291257], [-5.9017053692267396e-05, -0.0041657204539180814, -0.004052321610187926], [-0.0012001614739570732, -0.003319552443673407, 0.00018403997613372636], [0.000368550508102361, -0.0018325371815916536, -0.0032591885404243334]], "parameter_before": [[-0.33123511490895907, -0.05378844206990374, 0.3901261045422172], [0.2775320499880024, -0.18246983337048708, -0.33325325431491937], [-0.3624083782321056, 0.19247629378240821, -0.12205004072485764], [0.14327426220822714, -0.3958029781542782, 0.01674227889353066]], "parameter_after": [[-0.3321185430950542, -0.05688941880476407, 0.38625820522492593], [0.27747303293431014, -0.18663555382440516, -0.3373055759251073], [-0.36360853970606266, 0.1891567413387348, -0.12186600074872392], [0.1436428127163295, -0.3976355153358698, 0.013483090353106325]], "previous_recovery_norm": 1.7392466376194746, "recovery_norm_after": 1.7566391140956692, "dtype": "torch.float64", "finite": true}
{"fixture_id": "shape_4x3_rank2_gap5_fp64_100step", "step_index": 9, "refresh_happened": false, "projection_orientation": "right", "projection_rank": 2, "raw_gradient": [[10.760364891297925, 4.980285586826422, -3.2125166470146453], [-4.6096050523329675, 4.425730576243988, 2.450078895536601], [1.3503148737762387, -6.351542430880592, 12.59210175121775], [-5.643749105368514, -7.102350284511888, -7.01785762495525]], "projection_basis_before": [[-0.05269285663962364, -0.384724885225296], [-0.9442865252494812, -0.2810218036174774], [-0.32487884163856506, 0.8792117834091187]], "projection_basis_after": [[-0.05269285663962364, -0.384724885225296], [-0.9442865252494812, -0.2810218036174774], [-0.32487884163856506, 0.8792117834091187]], "invariant_projector_after": [[0.1507897744524611, 0.15787323564423894, -0.3211358582330931], [0.15787323564423894, 0.9706502958761591, 0.05970103136258764], [-0.3211358582330931, 0.05970103136258764, 0.8785596218298588]], "projected_gradient": [[-4.226132249114872, -8.363831476380216], [-4.732243282848979, 2.683841221069421], [1.8356165532380655, 12.336546412404672], [9.283992389765416, -2.002977104468283]], "reconstructed_projected_gradient": [[3.440461085536797, 6.341098743406454, -5.980598238777748], [-0.7831850888518682, 3.7143756656287987, 3.897070542447209], [-4.842900282474019, -5.2001864999722835, 10.250083992851119], [0.2813950565881899, -8.203868675672023, -4.777213765515434]], "remainder_gradient": [[7.319903805761128, -1.3608131565800319, 2.768081591763103], [-3.8264199634810994, 0.7113549106151895, -1.4469916469106083], [6.1932151562502575, -1.1513559309083083, 2.342017758366632], [-5.925144161956704, 1.101518391160135, -2.2406438594398157]], "exp_avg_before": [[-0.3688783230321161, 0.3066091152116029], [-0.7464230936343351, 0.4341463248505017], [-0.7864722808775956, -0.4388426443759855], [-0.197500833989524, 0.29471686925389107]], "exp_avg_after": [[-0.7546037156403915, -0.5604349439475789], [-1.1450051125557994, 0.6591158144723936], [-0.5242633974660295, 0.83869626130208], [0.7506484883859699, 0.06494747188167371]], "exp_avg_sq_before": [[0.009168669832194358, 0.024365693414000814], [0.024138075091472408, 0.039603274364314184], [0.07604950631264511, 0.09591671563737139], [0.006011672534871894, 0.016904085785470452]], "exp_avg_sq_after": [[0.027019694949370905, 0.09429500468587533], [0.04650806350445025, 0.046766674789861275], [0.07934294493685407, 0.24801117630714875], [0.09219817555555926, 0.02089909898070913]], "bias_correction1": 0.6125795109999999, "bias_correction2": 0.00896408387412595, "normalized_low_rank_update": [[-4.590670019261413, -1.8250696743588104], [-5.309349120143232, 3.0478351816935936], [-1.861203402583226, 1.684101291413194], [2.4721454578589492, 0.4492576334116023]], "raw_recovery_scale": [[0.5271800981453781], [1.1252945747179277], [0.20124772632814725], [0.2645547106492103]], "applied_recovery_scale": [[0.14086093123586085], [0.3006753143130181], [0.053772785124876064], [0.07068822027990321]], "candidate_recovery_update": [[3.8589076067358783, -0.717393613443383, 1.4592775252200871], [-4.305849625497652, 0.8004838216142292, -1.628291849930667], [1.2463704688563855, -0.23170776328972445, 0.4713257488914288], [-1.5675247993213135, 0.29141187924815315, -0.5927728879020303]], "limiter_triggered": true, "limiter_factor": 3.7425572408197088, "effective_recovery_update": [[1.0310884666364344, -0.19168540847387464, 0.3899145507525947], [-1.1505100252132867, 0.213886861337331, -0.4350746682431589], [0.33302642782917086, -0.06191161507498412, 0.1259368176792928], [-0.41883789571057795, 0.0778643746766922, -0.15838712670489416]], "complete_update_before_weight_decay": [[1.975133704837056, 4.656106804197329, 0.2767033457162226], [-2.0433232936385544, 4.3709255534454385, 3.9695131293975887], [-0.21681712414804538, 1.222328496345383, 2.2112841230292815], [-0.7219428933647031, -2.3828004600664707, -0.5665422743341747]], "step_size": 0.0010819035078482352, "adam_parameter_delta": [[-0.0021369040837324917, -0.005037458284377126, -0.00029936632036372423], [0.0022106786390555613, -0.004728919688816109, -0.004294630179144877], [0.0002345752071773366, -0.0013224414879389288, -0.0023923960495544883], [0.0007810725487973766, 0.0025779601762483035, 0.0006129440739464607]], "weight_decay_contribution": [[2.3397881302515072e-05, 4.3348813962398844e-06, -2.701711872331936e-05], [-1.95778598101356e-05, 1.339551314592549e-05, 2.3912014427297655e-05], [2.5436177514921973e-05, -1.3148400989555713e-05, 8.69808777587949e-06], [-1.0109671968558883e-05, 2.765402886117351e-05, -9.86722409893695e-07]], "complete_applied_update": [[-0.0021135062024300044, -0.005033123402980885, -0.00032638343908703016], [0.002191100779245392, -0.004715524175670199, -0.00427071816471758], [0.00026001138469228247, -0.0013355898889284845, -0.0023836979617786053], [0.0007709628768288179, 0.0026056142051094633, 0.000611957351536567]], "parameter_before": [[-0.3321185430950542, -0.05688941880476407, 0.38625820522492593], [0.27747303293431014, -0.18663555382440516, -0.3373055759251073], [-0.36360853970606266, 0.1891567413387348, -0.12186600074872392], [0.1436428127163295, -0.3976355153358698, 0.013483090353106325]], "parameter_after": [[-0.3342320492974842, -0.06192254220774496, 0.3859318217858389], [0.27966413371355553, -0.19135107800007536, -0.3415762940898249], [-0.3633485283213704, 0.18782115144980632, -0.12424969871050252], [0.14441377559315832, -0.39502990113076036, 0.014095047704642892]], "previous_recovery_norm": 1.7566391140956692, "recovery_norm_after": 1.7742055153366258, "dtype": "torch.float64", "finite": true}
{"fixture_id": "shape_4x3_rank2_gap5_fp64_100step", "step_index": 10, "refresh_happened": false, "projection_orientation": "right", "projection_rank": 2, "raw_gradient": [[2.528639604061137, -1.0880701906787908, -0.8249824422218908], [-0.8281267743076011, 1.7020489920114197, -0.8035172919245693], [-0.23467562137061132, 0.07296907729523007, 2.0610767685752993], [-0.27857395894618353, -0.8237756039111175, 1.0084005645317087]], "projection_basis_before": [[-0.05269285663962364, -0.384724885225296], [-0.9442865252494812, -0.2810218036174774], [-0.32487884163856506, 0.8792117834091187]], "projection_basis_after": [[-0.05269285663962364, -0.384724885225296], [-0.9442865252494812, -0.2810218036174774], [-0.32487884163856506, 0.8792117834091187]], "invariant_projector_after": [[0.1507897744524611, 0.15787323564423894, -0.3211358582330931], [0.15787323564423894, 0.9706502958761591, 0.05970103136258764], [-0.3211358582330931, 0.05970103136258764, 0.8785596218298588]], "projected_gradient": [[1.1622281156347498, -1.3923934183087112], [-1.3025397960358105, -0.8661737706159381], [-0.7261382206789775, 1.881902631229367], [0.4649510529720691, 1.2252708991021914]], "reconstructed_projected_gradient": [[0.4744472785675947, -0.7061834391017714, -1.6017920244455106], [0.40187314722529827, 1.4733844932624656, -0.33838256548119294], [-0.685752476642112, 0.1568268655952395, 1.8904979126091597], [-0.49589180520568515, -0.7833748522077887, 0.926219852850735]], "remainder_gradient": [[2.0541923254935424, -0.38188675157701946, 0.7768095822236198], [-1.2299999215328994, 0.22866449874895411, -0.4651347264433764], [0.4510768552715007, -0.08385778830000944, 0.17057885596613964], [0.21731784625950162, -0.0404007517033288, 0.08218071168097363]], "exp_avg_before": [[-0.7546037156403916, -0.5604349439475789], [-1.1450051125557994, 0.6591158144723935], [-0.5242633974660295, 0.83869626130208], [0.7506484883859698, 0.06494747188167373]], "exp_avg_after": [[-0.5629205325128775, -0.6436307913836921], [-1.1607585809038006, 0.5065868559635605], [-0.5444508797873242, 0.9430168982948086], [0.7220787448445797, 0.18097981460372548]], "exp_avg_sq_before": [[0.0270196949493709, 0.09429500468587534], [0.04650806350445024, 0.046766674789861275], [0.07934294493685407, 0.24801117630714875], [0.09219817555555926, 0.02089909898070913]], "exp_avg_sq_after": [[0.02834344944719343, 0.09613946911253889], [0.0481581653612028, 0.04747016511597445], [0.07979087870744804, 0.2513047226442696], [0.09232215686166353, 0.022379488657915114]], "bias_correction1": 0.6513215599, "bias_correction2": 0.009955119790251765, "normalized_low_rank_update": [[-3.343629578499483, -2.0757954332557373], [-5.289382293207195, 2.325099553804237], [-1.927438557291804, 1.8811277222961058], [2.3764580965860986, 1.2097681772868731]], "raw_recovery_scale": [[2.1699089668456337], [3.6937011186662017], [1.3351917006011207], [2.034809655077686]], "applied_recovery_scale": [[0.5591432112106426], [0.9517947233268831], [0.3440528549643159], [0.5243307540207498]], "candidate_recovery_update": [[4.457410346713922, -0.8286594865665254, 1.6856060779986433], [-4.543252086125411, 0.8446183148282581, -1.718068659394397], [0.6022740734917607, -0.11196622296893836, 0.2277554727840236], [0.4422004517895221, -0.0822078396383297, 0.1672221055896007]], "limiter_triggered": true, "limiter_factor": 3.8807749487781535, "effective_recovery_update": [[1.1485876933207166, -0.21352938459557558, 0.4343478043037125], [-1.170707435007494, 0.2176416633214412, -0.4427127782648989], [0.15519427986448536, -0.028851511475611456, 0.05868814239169718], [0.11394643019140988, -0.02118335660361148, 0.04308987452164675]], "complete_update_before_weight_decay": [[2.1233832471671024, 3.5271587484015385, -0.30444149623021294], [-1.7865184310940856, 4.558930419489937, 3.319950539439761], [-0.4669601236089464, 1.2625648410668504, 2.338781807754458], [-0.4767038587579821, -2.60521195017008, 0.3346713575641564]], "step_size": 0.0010723235176582767, "adam_parameter_delta": [[-0.002276953792938881, -0.0037822552764251024, 0.00032645977615873095], [0.0019157257283921555, -0.004888648304186773, -0.0035600610409035377], [0.0005007323223544891, -0.001353877971644468, -0.002507930735126444], [0.0005111807587046337, 0.0027936300426517594, -0.0003588759674026671]], "weight_decay_contribution": [[2.355563021632962e-05, 4.599335823891905e-06, -2.7038079709339838e-05], [-1.971059016093634e-05, 1.3736780841298352e-05, 2.4159544859150992e-05], [2.5399345719931116e-05, -1.3052709143471331e-05, 8.873034061194028e-06], [-1.0144746944630408e-05, 2.7456538976167604e-05, -9.61532021606816e-07]], "complete_applied_update": [[-0.002253398162722575, -0.003777655940601213, 0.00029942169644942007], [0.001896015138231233, -0.004874911523345488, -0.0035359014960444357], [0.0005261316680744144, -0.0013669306807879422, -0.0024990577010652465], [0.0005010360117599921, 0.0028210865816279407, -0.0003598374994242728]], "parameter_before": [[-0.3342320492974842, -0.06192254220774496, 0.3859318217858389], [0.27966413371355553, -0.19135107800007536, -0.3415762940898249], [-0.3633485283213704, 0.18782115144980632, -0.12424969871050252], [0.14441377559315832, -0.39502990113076036, 0.014095047704642892]], "parameter_after": [[-0.33648544746020675, -0.06570019814834617, 0.3862312434822883], [0.28156014885178676, -0.19622598952342085, -0.3451121955858693], [-0.36282239665329596, 0.18645422076901838, -0.12674875641156777], [0.14491481160491831, -0.3922088145491324, 0.01373521020521862]], "previous_recovery_norm": 1.7742055153366258, "recovery_norm_after": 1.791947580589992, "dtype": "torch.float64", "finite": true}
{"fixture_id": "shape_4x3_rank2_gap5_fp64_100step", "step_index": 11, "refresh_happened": true, "projection_orientation": "right", "projection_rank": 2, "raw_gradient": [[2.5188021142047408, 0.11444930099846307, -0.10244266778633385], [0.6160221607424865, 3.155750892184055, -0.704026190507828], [-0.15885187763290096, -0.46844029376924684, 1.3368016797067002], [-2.1136839677495507, 0.04260064371301003, -0.18316498137254428]], "projection_basis_before": [[-0.05269285663962364, -0.384724885225296], [-0.9442865252494812, -0.2810218036174774], [-0.32487884163856506, 0.8792117834091187]], "projection_basis_after": [[-0.7142312526702881, -0.6995951533317566], [-0.6689704656600952, 0.6735361814498901], [0.20579682290554047, -0.23856998980045319]], "invariant_projector_after": [[0.9995596608562529, 0.006596965551914025, 0.01991588597541405], [0.006596965551914025, 0.901172471647584, -0.29835751638922403], [0.01991588597541405, -0.29835751638922403, 0.09926797235140272]], "projected_gradient": [[-1.8966527670008315, -1.6606162599263874], [-2.6959727766401937, 1.862505808617037], [0.7019392355459678, -0.5233002461058326], [1.4434658043387323, 1.5511138021442386]], "reconstructed_projected_gradient": [[2.516407768643981, 0.15031955017163723, 0.005848090589331556], [0.622547976663997, 3.057991214060089, -0.9991606238374315], [-0.13524862358946516, -0.8220382667821876, 0.26930059892414715], [-2.1161200878656805, 0.07909527599754507, -0.07298852745119155]], "remainder_gradient": [[0.002394345560759792, -0.03587024917317416, -0.1082907583756654], [-0.006525815921510469, 0.0977596781239658, 0.29513443332960354], [-0.0236032540434358, 0.35359797301294077, 1.0675010807825531], [0.002436120116129814, -0.03649463228453504, -0.11017645392135272]], "exp_avg_before": [[-0.5629205325128775, -0.6436307913836921], [-1.1607585809038006, 0.5065868559635605], [-0.5444508797873242, 0.9430168982948086], [0.7220787448445797, 0.18097981460372548]], "exp_avg_after": [[-0.6962937559616729, -0.7453293382379617], [-1.31428000047744, 0.6421787512289081], [-0.419811868253995, 0.7963851838547445], [0.7942174507939949, 0.31799321335777675]], "exp_avg_sq_before": [[0.02834344944719343, 0.09613946911253889], [0.0481581653612028, 0.04747016511597445], [0.07979087870744804, 0.2513047226442696], [0.09232215686166353, 0.022379488657915114]], "exp_avg_sq_after": [[0.03191239771631815, 0.09880097600615825], [0.05537827640822664, 0.050891622837990674], [0.08020380651913944, 0.2513272610691998], [0.09431342823309713, 0.024763063196459555]], "bias_correction1": 0.6861894039099999, "bias_correction2": 0.010945164670461582, "normalized_low_rank_update": [[-3.897717433850481, -2.37118925084834], [-5.5849120255008415, 2.846628913365019], [-1.482366829291925, 1.588555915813073], [2.586135318341832, 2.020751493781861]], "raw_recovery_scale": [[1.8097968509758122], [1.9130249413660543], [2.4816457024143115], [1.5489502091006486]], "applied_recovery_scale": [[1.1424330652789587], [1.2075957290684505], [1.5665372084258464], [0.9777737951048011]], "candidate_recovery_update": [[0.004333279056010986, -0.06491786399732834, -0.1959842734980618], [-0.012484048620613229, 0.187016702511064, 0.5645995320154684], [-0.05857491395988568, 0.8775048901099761, 2.649159469446656], [0.003773428763273572, -0.05652836830818183, -0.17065784133944728]], "limiter_triggered": true, "limiter_factor": 1.5841600755260852, "effective_recovery_update": [[0.0027353795383158763, -0.0409793587152294, -0.12371494303249449], [-0.007880547435502936, 0.11805416977760752, 0.3564030811898665], [-0.03697537569896999, 0.55392438154873, 1.6722801630806747], [0.002381974411279397, -0.03568349510980402, -0.1077276494818703]], "complete_update_before_weight_decay": [[4.4454794923980225, 0.9693967345077816, -0.36015821211262683], [1.9895503734671067, 5.771502936460297, -1.4720743006923214], [-0.0895686777962311, 2.6155338951755986, 0.9882320105988625], [-3.258424644720579, -0.40468239849996196, -0.05759988062410182]], "step_size": 0.0010672475894517666, "adam_parameter_delta": [[-0.004744427272219053, -0.001034586328125844, 0.00038437798369845904], [-0.0021233428401756316, -0.006159622596451044, 0.001571067748907775], [9.55919554684096e-05, -0.0027914222447555474, -0.0010546882311307086], [0.003477545847488267, 0.0004318963142926436, 6.147333374878218e-05]], "weight_decay_contribution": [[2.388609123126981e-05, 4.671434913353042e-06, -2.7063093502619077e-05], [-1.9560576420812783e-05, 1.4166992848391034e-05, 2.4047878948587312e-05], [2.539087632884793e-05, -1.28563958966984e-05, 8.946241124988893e-06], [-1.0387465021668462e-05, 2.7424384276438788e-05, -9.65767847727718e-07]], "complete_applied_update": [[-0.004720541180987803, -0.0010299148932124969, 0.0003573148901958034], [-0.0021429034165964533, -0.006145455603602634, 0.0015951156278563583], [0.00012098283179728941, -0.002804278640652247, -0.0010457419900057052], [0.003467158382466612, 0.00045932069856907676, 6.050756590105302e-05]], "parameter_before": [[-0.33648544746020675, -0.06570019814834617, 0.3862312434822883], [0.28156014885178676, -0.19622598952342085, -0.3451121955858693], [-0.36282239665329596, 0.18645422076901838, -0.12674875641156777], [0.14491481160491831, -0.3922088145491324, 0.01373521020521862]], "parameter_after": [[-0.34120598864119456, -0.06673011304155867, 0.3865885583724841], [0.2794172454351903, -0.20237144512702349, -0.34351707995801295], [-0.3627014138214987, 0.18364994212836613, -0.12779449840157348], [0.14838196998738493, -0.39174949385056335, 0.013795717771119672]], "previous_recovery_norm": 1.791947580589992, "recovery_norm_after": 1.8098670664958918, "dtype": "torch.float64", "finite": true}
{"fixture_id": "shape_4x3_rank2_gap5_fp64_100step", "step_index": 12, "refresh_happened": false, "projection_orientation": "right", "projection_rank": 2, "raw_gradient": [[1.7838173370510528, 0.36611142083068166, 0.5852619553451477], [0.5377584648058943, 1.9565089618098799, 0.9076102566140184], [-0.32118284813738407, 0.041154905497584514, 2.7237454347613324], [-0.18298029252243847, 0.2282291825765405, 0.5723019570871511]], "projection_basis_before": [[-0.7142312526702881, -0.6995951533317566], [-0.6689704656600952, 0.6735361814498901], [0.20579682290554047, -0.23856998980045319]], "projection_basis_after": [[-0.7142312526702881, -0.6995951533317566], [-0.6689704656600952, 0.6735361814498901], [0.20579682290554047, -0.23856998980045319]], "invariant_projector_after": [[0.9995596608562529, 0.006596965551914025, 0.01991588597541405], [0.006596965551914025, 0.901172471647584, -0.29835751638922403], [0.01991588597541405, -0.29835751638922403, 0.09926797235140272]], "projected_gradient": [[-1.3985307678760155, -1.140986613775871], [-1.5061473059548225, 0.7250377898053928], [0.7624055685438107, -0.39738663880306435], [0.09578958550798446, 0.14519866586689686]], "reconstructed_projected_gradient": [[1.7971030872520386, 0.16708001209794787, -0.015608023953566696], [0.5685045533078709, 1.4959072489696879, -0.48293258851205717], [-0.2665241177584279, -0.7776810874692254, 0.25170517013789195], [-0.16999619856085363, 0.03371615133694435, -0.01492685186992319]], "remainder_gradient": [[-0.013285750200985769, 0.19903140873273378, 0.6008699792987144], [-0.030746088501976576, 0.460601712840192, 1.3905428451260755], [-0.05465873037895619, 0.8188359929668099, 2.4720402646234403], [-0.012984093961584842, 0.19451303123959618, 0.5872288089570743]], "exp_avg_before": [[-0.696293755961673, -0.7453293382379617], [-1.31428000047744, 0.6421787512289081], [-0.419811868253995, 0.7963851838547445], [0.7942174507939949, 0.31799321335777675]], "exp_avg_after": [[-0.7665174571531072, -0.7848950657917526], [-1.3334667310251782, 0.6504646550865566], [-0.3015901245742145, 0.6770080015889637], [0.7243746642653939, 0.30071375860868876]], "exp_avg_sq_before": [[0.03191239771631815, 0.09880097600615825], [0.05537827640822664, 0.050891622837990674], [0.08020380651913944, 0.2513272610691998], [0.09431342823309713, 0.024763063196459555]], "exp_avg_sq_after": [[0.03383637362729771, 0.10000402548296783], [0.05759137783905338, 0.05136641101179857], [0.08070486496356691, 0.2512338499488298], [0.09422829044955582, 0.024759382785832625]], "bias_correction1": 0.7175704635189999, "bias_correction2": 0.0119342195057911, "normalized_low_rank_update": [[-4.16704109343669, -2.481998327654549], [-5.556504120103707, 2.8700018416308652], [-1.0616117833533834, 1.3506843206571288], [2.359778181122872, 1.9110877636524992]], "raw_recovery_scale": [[2.687215563695369], [3.741342450114111], [1.9981911195919106], [17.45670437946456]], "applied_recovery_scale": [[0.3695343518563092], [0.5144933573822306], [0.27478266732275325], [2.4005710690145134]], "candidate_recovery_update": [[-0.035701674715457835, 0.5348402992108167, 1.6146671601288198], [-0.11503164608741033, 1.7232687408442802, 5.202496975172638], [-0.10921858965139884, 1.6361908095485036, 4.939608904044195], [-0.22665948992257748, 3.3955564843031856, 10.251079721068717]], "limiter_triggered": true, "limiter_factor": 7.271896510287828, "effective_recovery_update": [[-0.004909541089446106, 0.07354894262509894, 0.2220420983500644], [-0.015818658299753124, 0.23697652165515645, 0.7154250569727536], [-0.015019271726004785, 0.22500193824729525, 0.6792738176424737], [-0.031169240321546613, 0.4669423553400909, 1.4096844896742033]], "complete_update_before_weight_decay": [[4.707715439609056, 1.1894606873527351, -0.04339140388274809], [1.9449708614113657, 5.887163751489377, -1.1127821474912925], [-0.2017151622649029, 1.844923626987094, 0.1385647408664592], [-3.053584303691863, 0.17550720140590492, 1.4393911538287578]], "step_size": 0.0010656890335945235, "adam_parameter_delta": [[-0.005016960717274993, -0.001267595210403614, 4.624174327011547e-05], [-0.002072734117666986, -0.006273885848937424, 0.001185879731361234], [0.00021496563633544689, -0.0019661148770995793, -0.00014766692478425248], [0.0032541713056007874, -0.00018703609985513823, -0.001533943367688275]], "weight_decay_contribution": [[2.423560645509287e-05, 4.75983957763736e-06, -2.7064436008102798e-05], [-1.9414115792226635e-05, 1.4605173168317266e-05, 2.3963184015865622e-05], [2.5374051372961428e-05, -1.271786790758866e-05, 8.955951572845041e-06], [-1.0614529890509001e-05, 2.74355570965293e-05, -8.583242082401979e-07]], "complete_applied_update": [[-0.0049927251108198845, -0.001262835370825971, 1.9177307262030485e-05], [-0.0020921482334592123, -0.006259280675769113, 0.001209842915377124], [0.00024033968770842407, -0.0019788327450071808, -0.0001387109732113867], [0.0032435567757102823, -0.0001596005427585978, -0.0015348016918965146]], "parameter_before": [[-0.34120598864119456, -0.06673011304155867, 0.3865885583724841], [0.2794172454351903, -0.20237144512702349, -0.34351707995801295], [-0.3627014138214987, 0.18364994212836613, -0.12779449840157348], [0.14838196998738493, -0.39174949385056335, 0.013795717771119672]], "parameter_after": [[-0.34619871375201444, -0.06799294841238464, 0.38660773567974616], [0.2773250972017311, -0.2086307258027926, -0.3423072370426358], [-0.36246107413379025, 0.18167110938335895, -0.12793320937478486], [0.1516255267630952, -0.39190909439332194, 0.012260916079223158]], "previous_recovery_norm": 1.8098670664958918, "recovery_norm_after": 1.8279657472608508, "dtype": "torch.float64", "finite": true}
{"fixture_id": "shape_4x3_rank2_gap5_fp64_100step", "step_index": 13, "refresh_happened": false, "projection_orientation": "right", "projection_rank": 2, "raw_gradient": [[1.8960614841792565, 0.38797994163163974, -0.2998449761805375], [0.4335062178982066, 2.264367699762122, 0.9692302770293363], [-0.5629839392744931, -0.06850266520107892, 3.9238423473904867], [0.204676247896913, -0.030723820770265114, 0.018019134973006903]], "projection_basis_before": [[-0.7142312526702881, -0.6995951533317566], [-0.6689704656600952, 0.6735361814498901], [0.20579682290554047, -0.23856998980045319]], "projection_basis_after": [[-0.7142312526702881, -0.6995951533317566], [-0.6689704656600952, 0.6735361814498901], [0.20579682290554047, -0.23856998980045319]], "invariant_projector_after": [[0.9995596608562529, 0.006596965551914025, 0.01991588597541405], [0.006596965551914025, 0.901172471647584, -0.29835751638922403], [0.01991588597541405, -0.29835751638922403, 0.09926797235140272]], "projected_gradient": [[-1.6754806346674724, -0.993622883475991], [-1.6249542919088462, 0.9906254676103062], [1.2554412726949782, -0.5883892170141543], [-0.12192456351077408, -0.1681829407986879]], "reconstructed_projected_gradient": [[1.8918143860426861, 0.4516060976403229, -0.1077599902779603], [0.46755636353484087, 1.7542685240358886, -0.5707439383454227], [-0.48504114835514556, -1.2361545592376664, 0.3987378347668782], [0.20474230398342208, -0.0317133637033548, 0.0150317146662911]], "remainder_gradient": [[0.004247098136570315, -0.06362615600868315, -0.19208498590257722], [-0.03405014563663428, 0.5100991757262334, 1.5399742153747589], [-0.07794279091934753, 1.1676518940365874, 3.5251045126236082], [-6.605608650908645e-05, 0.0009895429330896849, 0.002987420306715803]], "exp_avg_before": [[-0.7665174571531072, -0.7848950657917526], [-1.3334667310251782, 0.6504646550865566], [-0.3015901245742145, 0.6770080015889637], [0.7243746642653939, 0.30071375860868876]], "exp_avg_after": [[-0.8574137749045436, -0.8057678475601765], [-1.3626154871135452, 0.6844807363389316], [-0.14588698484729531, 0.550468279728652], [0.6397447414877772, 0.2538240886679511]], "exp_avg_sq_before": [[0.03383637362729771, 0.10000402548296783], [0.05759137783905338, 0.05136641101179857], [0.08070486496356691, 0.2512338499488298], [0.09422829044955582, 0.024759382785832625]], "exp_avg_sq_after": [[0.03660977261081613, 0.10089130789205202], [0.06017426291200731, 0.05229638341786491], [0.08220029288778932, 0.25132881796957945], [0.09414892775829355, 0.024762908904622485]], "bias_correction1": 0.7458134171670999, "bias_correction2": 0.012922285286285251, "normalized_low_rank_update": [[-4.48115195451529, -2.5367734899404604], [-5.554771014996937, 2.9931156860991175], [-0.5088366107802703, 1.0980200931580475], [2.0849594854685916, 1.6129809779029194]], "raw_recovery_scale": [[2.643473779743685], [3.3155529641529844], [0.8728497689132412], [12.689888642434013]], "applied_recovery_scale": [[0.7741814522303673], [0.9710100506400865], [0.2556273138981975], [3.716426655381384]], "candidate_recovery_update": [[0.011227092564021893, -0.16819407511483503, -0.5077716237158982], [-0.11289506129538358, 1.6912608340911073, 5.105866074504948], [-0.06803234704240556, 1.0191846858809437, 3.07688665923854], [-0.0008382443819552948, 0.012557189627815633, 0.037910031020369606]], "limiter_triggered": true, "limiter_factor": 3.414540314971388, "effective_recovery_update": [[0.0032880246031348932, -0.04925818985863823, -0.14870863333770684], [-0.03306303363893057, 0.49531142645339626, 1.495330440855472], [-0.019924306280441628, 0.29848371724071554, 0.9011129977723876], [-0.0002454926006525475, 0.003677563733178782, 0.01110252845870624]], "complete_update_before_weight_decay": [[4.978581237145332, 1.2398913902292918, -0.4657174429127508], [1.8403587993427415, 6.227260888844064, -0.36189136470292493], [-0.4246668317925993, 1.3784366424002215, 0.5344413974703769], [-2.617822392230884, -0.30469770553513537, 0.055371711008288305]], "step_size": 0.0010669338902696299, "adam_parameter_delta": [[-0.005311817047370855, -0.001322882144489158, 0.0004968897231333255], [-0.0019635411732746963, -0.00664407568585831, 0.0003861141615974771], [0.0004530914349129565, -0.0014707007693662748, -0.0005702136393242067], [0.002793043428977846, 0.00032509230832283213, -5.9077955036958734e-05]], "weight_decay_contribution": [[2.4605737155956975e-05, 4.852108138981166e-06, -2.7097323778201568e-05], [-1.927530892199195e-05, 1.5069236104205566e-05, 2.393447860167269e-05], [2.5340558788921413e-05, -1.2614028602979489e-05, 8.995239610987636e-06], [-1.0809299913445115e-05, 2.741088014594994e-05, -8.54128668693034e-07]], "complete_applied_update": [[-0.005287211310214923, -0.0013180300363501707, 0.00046979239935512895], [-0.00198281648219667, -0.006629006449754116, 0.00041004864019911214], [0.0004784319937018999, -0.0014833147979692596, -0.000561218399713237], [0.0027822341290643926, 0.00035250318846880013, -5.993208370565217e-05]], "parameter_before": [[-0.34619871375201444, -0.06799294841238464, 0.38660773567974616], [0.2773250972017311, -0.2086307258027926, -0.3423072370426358], [-0.36246107413379025, 0.18167110938335895, -0.12793320937478486], [0.1516255267630952, -0.39190909439332194, 0.012260916079223158]], "parameter_after": [[-0.35148592506222937, -0.06931097844873481, 0.3870775280791013], [0.2753422807195344, -0.21525973225254671, -0.3418971884024367], [-0.36198264214008835, 0.1801877945853897, -0.1284944277744981], [0.1544077608921596, -0.39155659120485314, 0.012200983995517506]], "previous_recovery_norm": 1.8279657472608508, "recovery_norm_after": 1.8462454148334593, "dtype": "torch.float64", "finite": true}
{"fixture_id": "shape_4x3_rank2_gap5_fp64_100step", "step_index": 14, "refresh_happened": false, "projection_orientation": "right", "projection_rank": 2, "raw_gradient": [[1.4795318067193803, 0.9014747666347336, 0.7602915506866736], [0.10985177955986616, 2.734384842551827, -0.6601514946472988], [0.07240682793528308, -0.3616974938269305, 2.7602936810747565], [1.047641693832355, -1.9356822800683657, 1.4081826079553972]], "projection_basis_before": [[-0.7142312526702881, -0.6995951533317566], [-0.6689704656600952, 0.6735361814498901], [0.20579682290554047, -0.23856998980045319]], "projection_basis_after": [[-0.7142312526702881, -0.6995951533317566], [-0.6689704656600952, 0.6735361814498901], [0.20579682290554047, -0.23856998980045319]], "invariant_projector_after": [[0.9995596608562529, 0.006596965551914025, 0.01991588597541405], [0.006596965551914025, 0.901172471647584, -0.29835751638922403], [0.01991588597541405, -0.29835751638922403, 0.09926797235140272]], "projected_gradient": [[-1.5033222644819368, -0.6092801566811569], [-2.0435393557736634, 1.9223476882466255], [0.758309391306816, -0.9527950500640965], [0.8364553437198833, -2.372627213267946]], "reconstructed_projected_gradient": [[1.4999691887634186, 0.5953059651434529, -0.16402298506850313], [0.1146945482394115, 2.6618381957872947, -0.879168375278577], [0.12496253267861945, -1.1490285263414726, 0.38336596888609076], [1.0624559511174785, -2.1576141940207516, 0.7381775023095254]], "remainder_gradient": [[-0.02043738204403822, 0.3061688014912807, 0.9243145357551767], [-0.004842768679545334, 0.07254664676453215, 0.21901688063127822], [-0.05255570474333637, 0.7873310325145421, 2.3769277121886656], [-0.014814257285123533, 0.22193191395238587, 0.6700051056458718]], "exp_avg_before": [[-0.8574137749045436, -0.8057678475601765], [-1.3626154871135452, 0.6844807363389316], [-0.14588698484729531, 0.550468279728652], [0.6397447414877772, 0.2538240886679511]], "exp_avg_after": [[-0.922004623862283, -0.7861190784722746], [-1.430707873979557, 0.8082674315297009], [-0.05546734723188422, 0.40014194674937714], [0.6594158017109878, -0.008821041525638562]], "exp_avg_sq_before": [[0.03660977261081613, 0.10089130789205202], [0.06017426291200731, 0.05229638341786491], [0.08220029288778932, 0.25132881796957945], [0.09414892775829355, 0.024762908904622485]], "exp_avg_sq_after": [[0.038833140669092416, 0.10116163889348538], [0.06429014174769114, 0.05593950766895419], [0.08269312572784565, 0.25198530755903653], [0.0947544363725728, 0.030367505888857487]], "bias_correction1": 0.7712320754503899, "bias_correction2": 0.013909363000998987, "normalized_low_rank_update": [[-4.678747814055945, -2.4716048719886796], [-5.6425713947115375, 3.41738511543031], [-0.19288621079765675, 0.7971234874931349], [2.142190864153093, -0.05061891269547499]], "raw_recovery_scale": [[3.262107619464713], [2.351267877876804], [0.6734930601730412], [0.8517482033878275]], "applied_recovery_scale": [[1.6497804378926213], [1.1891317521286973], [0.3406128200982673], [0.4307636926429808]], "candidate_recovery_update": [[-0.0666689396877684, 0.9987555801870859, 3.0152134898689513], [-0.01138664643620281, 0.17057660018511964, 0.5149673561411029], [-0.03539590241714043, 0.5302619864574192, 1.6008443186920502], [-0.012618017027129004, 0.1890301089833666, 0.5706756449945429]], "limiter_triggered": true, "limiter_factor": 1.9772980358717485, "effective_recovery_update": [[-0.03371719309799217, 0.5051112993933441, 1.5249160395486905], [-0.005758690005061721, 0.08626752117816981, 0.2604399270108336], [-0.017901146804879687, 0.2681750433356588, 0.8096120512183042], [-0.006381444171902993, 0.09560021076945402, 0.28861387339766625]], "complete_update_before_weight_decay": [[5.0371135084579945, 1.9703400957363022, 1.1516953533408243], [1.6335560816981634, 6.162713655809303, -1.7160688711709144], [-0.4377995153011483, 0.9341017315025238, 0.5797469395729191], [-1.5009883625461358, -1.371555878321898, 0.7415461007831166]], "step_size": 0.0010704504699023938, "adam_parameter_delta": [[-0.005391980522080556, -0.0021091514813484525, -0.0012328328321680889], [-0.0017486408752657122, -0.006596879728734967, 0.001836966729529776], [0.00046864269687715447, -0.0009999096374235163, -0.000620590383890306], [0.0016067336980055357, 0.0014681826344470662, -0.000793788372037575]], "weight_decay_contribution": [[2.4981453390901696e-05, 4.999409095105829e-06, -2.7009128667285328e-05], [-1.9151554789098813e-05, 1.5529962838689718e-05, 2.380421551710349e-05], [2.530597996102479e-05, -1.2543151946357633e-05, 9.03805127108719e-06], [-1.0921014621311561e-05, 2.7306188599928425e-05, -7.985036936435952e-07]], "complete_applied_update": [[-0.0053669990686896485, -0.0021041520722533402, -0.0012598419608353395], [-0.0017677924300548153, -0.006581349765896277, 0.0018607709450468857], [0.0004939486768381629, -0.001012452789369872, -0.0006115523326192251], [0.00159581268338424, 0.0014954888230470087, -0.0007945868757312183]], "parameter_before": [[-0.35148592506222937, -0.06931097844873481, 0.3870775280791013], [0.2753422807195344, -0.21525973225254671, -0.3418971884024367], [-0.36198264214008835, 0.1801877945853897, -0.1284944277744981], [0.1544077608921596, -0.39155659120485314, 0.012200983995517506]], "parameter_after": [[-0.356852924130919, -0.07141513052098815, 0.38581768611826595], [0.2735744882894796, -0.221841082018443, -0.34003641745738983], [-0.3614886934632502, 0.17917534179601982, -0.12910598010711732], [0.15600357357554384, -0.39006110238180614, 0.011406397119786287]], "previous_recovery_norm": 1.8462454148334593, "recovery_norm_after": 1.8647078790817937, "dtype": "torch.float64", "finite": true}
{"fixture_id": "shape_4x3_rank2_gap5_fp64_100step", "step_index": 15, "refresh_happened": false, "projection_orientation": "right", "projection_rank": 2, "raw_gradient": [[0.10898850744228905, 0.014420262113759262, 0.08200369844999388], [0.07685854646419732, 0.09885706605996807, 0.059815960256091975], [0.05311783148232299, 0.08232759052477855, 0.1415778253471177], [0.09193202390525375, 0.08812292536633959, 0.11088268058911127]], "projection_basis_before": [[-0.7142312526702881, -0.6995951533317566], [-0.6689704656600952, 0.6735361814498901], [0.20579682290554047, -0.23856998980045319]], "projection_basis_after": [[-0.7142312526702881, -0.6995951533317566], [-0.6689704656600952, 0.6735361814498901], [0.20579682290554047, -0.23856998980045319]], "invariant_projector_after": [[0.9995596608562529, 0.006596965551914025, 0.01991588597541405], [0.006596965551914025, 0.901172471647584, -0.29835751638922403], [0.01991588597541405, -0.29835751638922403, 0.09926797235140272]], "projected_gradient": [[-0.07061362705084054, -0.08609888479869404], [-0.108717298855721, -0.0014563488433058044], [-0.06387687523847126, -0.015486586859528875], [-0.10179305563152533, -0.03141449968784787]], "reconstructed_projected_gradient": [[0.11066882181655, -0.010752283124257286, 0.0060085499673551215], [0.07866814714098874, 0.07174775840204026, -0.022026233570686164], [0.056457201726814704, 0.032300966396132794, -0.009451023112089335], [0.09468121336280101, 0.04693774566487366, -0.013454130572698638]], "remainder_gradient": [[-0.0016803143742609439, 0.02517254523801655, 0.07599514848263875], [-0.001809600676791423, 0.02710930765792781, 0.08184219382677814], [-0.003339370244491713, 0.05002662412864575, 0.15102884845920703], [-0.002749189457547263, 0.04118517970146593, 0.1243368111618099]], "exp_avg_before": [[-0.922004623862283, -0.7861190784722746], [-1.430707873979557, 0.8082674315297009], [-0.05546734723188422, 0.40014194674937714], [0.6594158017109878, -0.008821041525638566]], "exp_avg_after": [[-0.8368655241811388, -0.7161170591049165], [-1.2985088164671732, 0.7272950534924002], [-0.05630830003254292, 0.35857909338848654], [0.5832949159767365, -0.011080387341859496]], "exp_avg_sq_before": [[0.038833140669092416, 0.10116163889348538], [0.06429014174769114, 0.05593950766895419], [0.08269312572784565, 0.25198530755903653], [0.0947544363725728, 0.030367505888857487]], "exp_avg_sq_after": [[0.0387992938127486, 0.10106789027255547], [0.06423767105701393, 0.05588357028223719], [0.08261451285730805, 0.25173356208585007], [0.09467004376237503, 0.030338125253759268]], "bias_correction1": 0.794108867905351, "bias_correction2": 0.014895453637998046, "normalized_low_rank_update": [[-4.248558098310034, -2.25255836862098], [-5.123282404164109, 3.076569458750378], [-0.19590374211830783, 0.7146831429666797], [1.895747494562225, -0.06361478724941699]], "raw_recovery_scale": [[43.18523696003975], [54.96387564223666], [11.27454851588104], [17.80540390428243]], "applied_recovery_scale": [[12.391173043173067], [15.77082684151081], [3.2350148216902004], [5.1089181491746025]], "candidate_recovery_update": [[-0.07256477441981979, 1.0870823309910649, 3.28186849503616], [-0.09946266656127106, 1.490032614857478, 4.498364163782862], [-0.03764989183401135, 0.5640276008241616, 1.7027820792509751], [-0.04895042870102413, 0.7333187594550549, 2.2138671429065173]], "limiter_triggered": true, "limiter_factor": 3.4851613168159825, "effective_recovery_update": [[-0.02082106617839843, 0.3119173639813652, 0.9416690352900079], [-0.0285388989259583, 0.42753619686642247, 1.290719067171483], [-0.01080291223604192, 0.1618368705352936, 0.48858056326833793], [-0.014045383915182692, 0.2104117120538367, 0.635226591155066]], "complete_update_before_weight_decay": [[4.5895108237042, 1.6368976912978284, 0.6047221037550308], [1.4783164281535486, 5.927041657700344, -0.4976133188478131], [-0.3708712000874818, 0.7742556431851165, 0.27776224541696726], [-1.323542894862998, -1.1006342330451333, 1.0405419817123616]], "step_size": 0.001075832998866815, "adam_parameter_delta": [[-0.004937547192797396, -0.0017610285520671088, -0.000650579994363824], [-0.0015904215961745109, -0.0063765070010123, 0.0005353488290921114], [0.0003989954753834502, -0.0008329697704973987, -0.00029882578945891617], [0.0014239111217093248, 0.0011840986275924229, -0.0011194494006324285]], "weight_decay_contribution": [[2.532533299266015e-05, 5.122331135113869e-06, -2.6961697428673154e-05], [-1.903888466853136e-05, 1.5975231231361873e-05, 2.3765074803980844e-05], [2.5276278859150672e-05, -1.2483966041786571e-05, 9.058336412760337e-06], [-1.1019923928807724e-05, 2.7221390262794963e-05, -7.200863403407702e-07]], "complete_applied_update": [[-0.004912221859804722, -0.0017559062209319964, -0.0006775416917924604], [-0.001609460480843039, -0.006360531769780936, 0.0005591139038961246], [0.0004242717542426444, -0.0008454537365391868, -0.0002897674530461525], [0.0014128911977805414, 0.001211320017855233, -0.0011201694869727684]], "parameter_before": [[-0.356852924130919, -0.07141513052098815, 0.38581768611826595], [0.2735744882894796, -0.221841082018443, -0.34003641745738983], [-0.3614886934632502, 0.17917534179601982, -0.12910598010711732], [0.15600357357554384, -0.39006110238180614, 0.011406397119786287]], "parameter_after": [[-0.36176514599072374, -0.07317103674192015, 0.3851401444264735], [0.2719650278086366, -0.22820161378822393, -0.3394773035534937], [-0.36106442170900754, 0.17832988805948063, -0.12939574756016348], [0.15741646477332438, -0.3888497823639509, 0.010286227632813519]], "previous_recovery_norm": 1.8647078790817937, "recovery_norm_after": 1.8833549679726116, "dtype": "torch.float64", "finite": true}
{"fixture_id": "shape_4x3_rank2_gap5_fp64_100step", "step_index": 16, "refresh_happened": true, "projection_orientation": "right", "projection_rank": 2, "raw_gradient": [[14.120471358290182, -1.8430302689280473, -0.9109353054095608], [2.8589953006676994, 13.372820450930165, 4.174147635486145], [5.947941008581163, 2.03114076088058, 16.92464351558289], [2.697044731237133, -0.573978143723892, -1.2504956496932582]], "projection_basis_before": [[-0.7142312526702881, -0.6995951533317566], [-0.6689704656600952, 0.6735361814498901], [0.20579682290554047, -0.23856998980045319]], "projection_basis_after": [[-0.5101708769798279, -0.80608731508255], [-0.3685114085674286, 0.5199478268623352], [-0.777126133441925, 0.282625287771225]], "invariant_projector_after": [[0.910051083255361, -0.23111955925254968, 0.16864646162806984], [-0.23111955925254968, 0.4061464009032152, 0.4333302502622338], [0.16864646162806984, 0.4333302502622338, 0.6838020805661644]], "projected_gradient": [[-5.81676394408369, -12.598065780907172], [-9.63045225309554, 5.828288763411329], [-16.935547598510833, 1.0448596708117945], [-0.19264333242639323, -2.825913927407415]], "reconstructed_projected_gradient": [[13.122684583102629, -4.40679305111292, 0.9598273063204488], [0.21506663085007638, 6.579337601791491, 9.131297911718136], [7.797775043783173, 6.784215015602648, 13.456360388096133], [2.376214388246517, -1.3983365396719187, -0.6489665688883429]], "remainder_gradient": [[0.9977867751875529, 2.563762782184872, -1.8707626117300096], [2.643928669817623, 6.793482849138674, -4.957150276231991], [-1.8498340352020106, -4.753074254722067, 3.4682831274867567], [0.32083034299061586, 0.8243583959480267, -0.6015290808049153]], "exp_avg_before": [[-0.8368655241811388, -0.7161170591049165], [-1.2985088164671732, 0.7272950534924002], [-0.05630830003254292, 0.35857909338848654], [0.5832949159767365, -0.011080387341859496]], "exp_avg_after": [[-1.3348553661713938, -1.9043119312851418], [-2.1317031601300096, 1.237394424484293], [-1.7442322298803716, 0.4272071511308173], [0.5057010911364236, -0.292563741348415]], "exp_avg_sq_before": [[0.0387992938127486, 0.10106789027255547], [0.06423767105701393, 0.05588357028223719], [0.08261451285730805, 0.25173356208585007], [0.09467004376237503, 0.030338125253759268]], "exp_avg_sq_after": [[0.07259523730012793, 0.25967808380234725], [0.15691904398510997, 0.08979663662166175], [0.369344670805877, 0.25257356025545313], [0.094612485172141, 0.038293576653620716]], "bias_correction1": 0.8146979811148158, "bias_correction2": 0.015880558184360072, "normalized_low_rank_update": [[-4.954257040605165, -3.736969792781682], [-5.381307457544325, 4.1293022270538415], [-2.8700381786649802, 0.8500485025983008], [1.6440622358117152, -1.4950486184842828]], "raw_recovery_scale": [[0.44721594809276927], [0.602574847955855], [0.17640973317676334], [0.784539305549477]], "applied_recovery_scale": [[0.14963571319684293], [0.20161784818471998], [0.05902561469765382], [0.2625020396019056]], "candidate_recovery_update": [[0.44622615865992826, 1.1465556033197635, -0.8366348750613414], [1.5931649162214803, 4.093581894910446, -2.9870540739948166], [-0.32632872857128215, -0.8384885610448631, 0.611838901101409], [0.25170401448905827, 0.6467415634809457, -0.4719232073225035]], "limiter_triggered": true, "limiter_factor": 2.9886979420779394, "effective_recovery_update": [[0.14930453572356747, 0.38363047237975567, -0.27993289762820855], [0.5330632091625181, 1.3696873937231402, -0.9994499718221843], [-0.10918759101644007, -0.2805531295885628, 0.20471754354540705], [0.0842186194012156, 0.2163957602993123, -0.15790261059114974]], "complete_update_before_weight_decay": [[5.68914614172057, 0.26630139001123854, 2.513987557337419], [-0.05012859129423142, 5.499782304251653, 4.349549915736885], [0.6698089884092546, 1.219069553927135, 2.6753444188283715], [0.4506056735396076, -1.1668072102266183, -1.858084885076487]], "step_size": 0.0010827651812002732, "adam_parameter_delta": [[-0.006160009353014908, -0.0002883418728094033, -0.002722058193055683], [5.4277493236012914e-05, -0.005954972783225097, -0.004709541202652481], [-0.0007252458507045182, -0.0013199660664536506, -0.002896769784425841], [-0.00048790013375998436, 0.0012633782204068095, 0.0020118696172753314]], "weight_decay_contribution": [[2.5754760874061708e-05, 5.142156503031069e-06, -2.6769266036339247e-05], [-1.9041351371131084e-05, 1.6390961060001435e-05, 2.4093079132930238e-05], [2.5325276729179846e-05, -1.239069453951189e-05, 9.260476214121254e-06], [-1.098499952476951e-05, 2.7131048290048092e-05, -8.608668075062196e-07]], "complete_applied_update": [[-0.006134254592140842, -0.0002831997163063732, -0.0027488274590920514], [3.523614186484725e-05, -0.005938581822165084, -0.004685448123519564], [-0.0006999205739753322, -0.0013323567609931641, -0.0028875093082117165], [-0.0004988851332847488, 0.0012905092686968378, 0.002011008750467825]], "parameter_before": [[-0.36176514599072374, -0.07317103674192015, 0.3851401444264735], [0.2719650278086366, -0.22820161378822393, -0.3394773035534937], [-0.36106442170900754, 0.17832988805948063, -0.12939574756016348], [0.15741646477332438, -0.3888497823639509, 0.010286227632813519]], "parameter_after": [[-0.3678994005828646, -0.07345423645822652, 0.38239131696738143], [0.2720002639505014, -0.234140195610389, -0.34416275167701327], [-0.3617643422829829, 0.17699753129848747, -0.1322832568683752], [0.15691757964003963, -0.38755927309525406, 0.012297236383281344]], "previous_recovery_norm": 1.8833549679726116, "recovery_norm_after": 1.9021885277523376, "dtype": "torch.float64", "finite": true}
{"fixture_id": "shape_4x3_rank2_gap5_fp64_100step", "step_index": 17, "refresh_happened": false, "projection_orientation": "right", "projection_rank": 2, "raw_gradient": [[2.3119837935120318, 0.12822502947836462, -0.8592713470881133], [0.8311096366407145, 3.438687331577891, 0.23397179788069655], [-0.015311677960304304, -1.3699263707108655, 2.0956123655683827], [-1.3705140308790043, 0.7073747094056253, -0.17898734216333384]], "projection_basis_before": [[-0.5101708769798279, -0.80608731508255], [-0.3685114085674286, 0.5199478268623352], [-0.777126133441925, 0.282625287771225]], "projection_basis_after": [[-0.5101708769798279, -0.80608731508255], [-0.3685114085674286, 0.5199478268623352], [-0.777126133441925, 0.282625287771225]], "invariant_projector_after": [[0.910051083255361, -0.23111955925254968, 0.16864646162806984], [-0.23111955925254968, 0.4061464009032152, 0.4333302502622338], [0.16864646162806984, 0.4333302502622338, 0.6838020805661644]], "projected_gradient": [[-0.558996966185835, -2.039842294944194], [-1.8730290429956018, 1.1841174164804023], [-1.1159100661698755, -0.10767464216038836], [0.5776164356490965, 1.4219655692807316]], "reconstructed_projected_gradient": [[1.9294749711914834, -0.8546148090040511, -0.14209986467875435], [0.0010628404805808067, 1.3059118483708398, 1.7902413435952944], [0.6560999802900449, 0.35524039411935976, 0.8367712982652747], [-1.4409114914143966, 0.5264896613078338, -0.046997399029748366]], "remainder_gradient": [[0.3825088223205484, 0.9828398384824157, -0.7171714824093589], [0.8300467961601337, 2.1327754832070513, -1.5562695457145979], [-0.6714116582503492, -1.7251667648302254, 1.2588410673031079], [0.07039746053539231, 0.1808850480977915, -0.13198994313358547]], "exp_avg_before": [[-1.3348553661713938, -1.9043119312851418], [-2.1317031601300096, 1.237394424484293], [-1.7442322298803716, 0.4272071511308173], [0.5057010911364236, -0.292563741348415]], "exp_avg_after": [[-1.257269526172838, -1.917864967651047], [-2.1058357484165686, 1.2320667236839038], [-1.6814000135093221, 0.3737189718016967], [0.5128926255876909, -0.12111081028550039]], "exp_avg_sq_before": [[0.07259523730012793, 0.2596780838023473], [0.15691904398510995, 0.08979663662166175], [0.369344670805877, 0.25257356025545313], [0.094612485172141, 0.038293576653620716]], "exp_avg_sq_after": [[0.07283511967103276, 0.2635793623067882], [0.16027036273702988, 0.09110897404105231], [0.37022058141085035, 0.25233258052376206], [0.09485151343370082, 0.04027726915718697]], "bias_correction1": 0.8332281830033342, "bias_correction2": 0.016864677626175606, "normalized_low_rank_update": [[-4.658610068024628, -3.73560956616853], [-5.26013389592177, 4.081804603840789], [-2.7633764590188945, 0.7439737565380943], [1.6653399950199985, -0.6034631246693514]], "raw_recovery_scale": [[2.8232833680301037], [3.004639318448032], [2.5526639973788794], [1.154091790548642]], "applied_recovery_scale": [[0.5061406112325685], [0.5386529734823555], [0.45762566044023867], [0.20689836907669223]], "candidate_recovery_update": [[1.0799307961823863, 2.774835369424798, -2.0247783183118373], [2.4939912398945565, 6.4082210742659065, -4.676028667157338], [-1.7138883674361185, -4.403771090056712, 3.213398270926646], [0.08124513127936828, 0.20875794904265743, -0.1523285098054531]], "limiter_triggered": true, "limiter_factor": 5.578061324015793, "effective_recovery_update": [[0.1936032491311723, 0.4974551565932088, -0.3629896124652402], [0.44710717488115864, 1.1488258557997457, -0.8382892183392029], [-0.3072552035340919, -0.7894805801249818, 0.5760779748138797], [0.014565119771913474, 0.03742482144179209, -0.027308503968864185]], "complete_update_before_weight_decay": [[5.581517918431832, 0.2718840387918908, 2.2015602882730407], [-0.15961661620672646, 5.209570640482847, 4.403119498371706], [0.5028311800893177, 0.6156827091447343, 2.93383583469149], [-0.3485988760409777, -0.8900413061300858, -1.4920416744339484]], "step_size": 0.0010909958809912032, "adam_parameter_delta": [[-0.006089413058687722, -0.0002966243664292054, -0.0024018932062596933], [0.0001741410708192923, -0.005683620110499489, -0.004803785236235584], [-0.0005485867463113915, -0.0006717072996744101, -0.0032008028111528038], [0.00038031993787886973, 0.0009710313988999541, 0.0016278113210746554]], "weight_decay_contribution": [[2.6179216954908663e-05, 5.162560257725901e-06, -2.6599259663278523e-05], [-1.9052208351492455e-05, 1.67876671004622e-05, 2.4427657583927423e-05], [2.5361905032050604e-05, -1.2342807679916915e-05, 9.483884177566961e-06], [-1.1010852970454296e-05, 2.7061176918744788e-05, -9.7475333930492e-07]], "complete_applied_update": [[-0.006063233841732796, -0.00029146180617146966, -0.002428492465922971], [0.0001550888624678448, -0.00566683244339905, -0.004779357578651666], [-0.0005232248412793683, -0.0006840501073543392, -0.003191318926975245], [0.00036930908490842573, 0.000998092575818732, 0.0016268365677353513]], "parameter_before": [[-0.3678994005828646, -0.07345423645822652, 0.38239131696738143], [0.2720002639505014, -0.234140195610389, -0.34416275167701327], [-0.3617643422829829, 0.17699753129848747, -0.1322832568683752], [0.15691757964003963, -0.38755927309525406, 0.012297236383281344]], "parameter_after": [[-0.3739626344245974, -0.07374569826439799, 0.37996282450145846], [0.27215535281296926, -0.23980702805378806, -0.34894210925566493], [-0.36228756712426224, 0.17631348119113313, -0.13547457579535044], [0.15728688872494806, -0.38656118051943533, 0.013924072951016695]], "previous_recovery_norm": 1.9021885277523376, "recovery_norm_after": 1.9212104231298608, "dtype": "torch.float64", "finite": true}
